version: 100
cost-factor: 1
maxid: 10716
xsize: 5

B
E
I
O

U00:%x[0,0]
U01:%x[0,1]
U02:%x[0,2]
U03:%x[0,3]
U04:%x[0,4]
U10:%x[1,0]
U11:%x[1,1]
U12:%x[1,2]
U13:%x[1,3]
U14:%x[1,4]
U20:%x[-1,0]
U21:%x[-1,1]
U22:%x[-1,2]
U23:%x[-1,3]
U24:%x[-1,4]
U30:%x[2,0]
U31:%x[2,1]
U32:%x[2,2]
U33:%x[2,3]
U34:%x[2,4]
U40:%x[-2,0]
U41:%x[-2,1]
U42:%x[-2,2]
U43:%x[-2,3]
U44:%x[-2,4]
B

10700 B
10072 U00:+
5668 U00:,
1064 U00:-
5048 U00:.
7548 U00:/
168 U00:0
100 U00:1
592 U00:2
1388 U00:3
1048 U00:4
1080 U00:5
604 U00:6
1964 U00:7
648 U00:8
2288 U00:9
3668 U00::
8028 U00:;
9208 U00:?
10188 U00:U
6848 U00:W
0 U00:^
6428 U00:~
616 U00:—
364 U00:、
1256 U00:。
1708 U00:一
2320 U00:七
5068 U00:三
1432 U00:上
1336 U00:下
3280 U00:不
5384 U00:东
2188 U00:两
2084 U00:个
7668 U00:中
3688 U00:为
7924 U00:主
496 U00:举
2148 U00:么
3728 U00:之
1520 U00:九
3904 U00:也
800 U00:了
1724 U00:二
1800 U00:于
980 U00:云
5800 U00:五
2972 U00:些
5112 U00:交
6384 U00:产
9424 U00:享
3264 U00:京
1468 U00:人
5328 U00:什
10288 U00:从
5004 U00:他
1760 U00:以
3996 U00:仪
1504 U00:们
3084 U00:件
5448 U00:价
4308 U00:份
6000 U00:休
304 U00:会
10408 U00:伦
8168 U00:估
9532 U00:似
9808 U00:但
5460 U00:位
388 U00:住
4244 U00:体
9288 U00:何
5560 U00:作
728 U00:你
8088 U00:使
4164 U00:供
6580 U00:侨
5144 U00:便
3520 U00:信
3500 U00:借
8840 U00:假
10608 U00:偏
4628 U00:做
5024 U00:像
5288 U00:元
8108 U00:先
8308 U00:入
5648 U00:全
8628 U00:八
5308 U00:公
4888 U00:六
9228 U00:共
9120 U00:关
8408 U00:其
3932 U00:具
2688 U00:内
4588 U00:再
3020 U00:况
4828 U00:准
5492 U00:几
10488 U00:出
5792 U00:分
8268 U00:划
6448 U00:刚
6348 U00:初
7508 U00:利
4408 U00:到
7388 U00:前
7252 U00:剧
516 U00:办
9460 U00:加
6040 U00:务
3600 U00:动
6208 U00:包
7824 U00:化
3248 U00:北
856 U00:区
7588 U00:十
4868 U00:午
700 U00:半
6568 U00:华
6548 U00:南
5768 U00:厅
8000 U00:厚
6160 U00:去
9452 U00:参
4224 U00:及
5992 U00:双
6404 U00:发
6308 U00:口
4432 U00:古
10508 U00:另
7228 U00:只
6248 U00:召
1752 U00:可
6760 U00:台
2536 U00:右
1292 U00:号
3172 U00:司
6712 U00:吃
2224 U00:合
9104 U00:名
10228 U00:后
2012 U00:吗
8588 U00:否
4368 U00:吧
6868 U00:含
6980 U00:员
8608 U00:呢
1304 U00:周
7468 U00:呵
6464 U00:和
2852 U00:咨
4736 U00:品
6804 U00:响
8348 U00:哦
3048 U00:哪
2732 U00:唐
2784 U00:售
6032 U00:商
4948 U00:嘉
9668 U00:四
7628 U00:园
9020 U00:围
2440 U00:国
4180 U00:图
8768 U00:圆
2412 U00:在
2608 U00:地
4280 U00:圳
1828 U00:场
9052 U00:址
7868 U00:均
4848 U00:坐
9760 U00:坪
8560 U00:型
5908 U00:城
9092 U00:域
3332 U00:培
2980 U00:基
940 U00:塘
4480 U00:士
3944 U00:备
7760 U00:外
4532 U00:多
7428 U00:夜
9188 U00:够
2112 U00:大
688 U00:天
9544 U00:太
9700 U00:奖
744 U00:好
7960 U00:如
3220 U00:始
9888 U00:子
9368 U00:学
9960 U00:宁
6112 U00:安
3296 U00:定
6088 U00:宜
8188 U00:宝
340 U00:室
10428 U00:宴
5500 U00:家
1932 U00:容
7304 U00:宿
3180 U00:将
8552 U00:小
4544 U00:少
7324 U00:就
4128 U00:尽
10588 U00:尾
4644 U00:展
1560 U00:山
9576 U00:岛
8812 U00:岸
2380 U00:州
5552 U00:工
2520 U00:左
4968 U00:已
3628 U00:市
4796 U00:布
4080 U00:希
8248 U00:带
8368 U00:帮
10468 U00:常
2492 U00:平
1408 U00:年
2372 U00:广
7132 U00:应
252 U00:底
1156 U00:店
9848 U00:庙
8824 U00:度
6268 U00:延
2424 U00:建
3212 U00:开
5748 U00:式
2584 U00:形
3980 U00:影
3428 U00:征
8148 U00:待
1580 U00:很
4784 U00:微
8228 U00:心
8908 U00:忙
2312 U00:快
10168 U00:怡
7568 U00:恩
3536 U00:息
2708 U00:您
3008 U00:情
1788 U00:想
1620 U00:意
1600 U00:愿
3804 U00:成
1492 U00:我
4332 U00:或
7752 U00:户
408 U00:房
3472 U00:所
3100 U00:才
9060 U00:打
9268 U00:执
4608 U00:找
1640 U00:承
5616 U00:把
3960 U00:投
5692 U00:报
10528 U00:拓
8680 U00:拜
7720 U00:择
7688 U00:括
6120 U00:排
1660 U00:接
2240 U00:推
7084 U00:描
4148 U00:提
9648 U00:搞
6908 U00:搭
10448 U00:摄
9300 U00:操
10368 U00:收
4688 U00:放
5088 U00:数
6928 U00:整
7812 U00:文
932 U00:新
2504 U00:方
8288 U00:旁
7288 U00:无
1320 U00:日
3648 U00:早
4388 U00:旬
536 U00:时
9248 U00:明
1100 U00:星
2348 U00:是
9492 U00:晓
4668 U00:晚
9332 U00:晴
7488 U00:暂
8888 U00:最
220 U00:月
1192 U00:有
9340 U00:朗
4096 U00:望
2740 U00:朝
1220 U00:期
8648 U00:未
2948 U00:末
1904 U00:本
9408 U00:术
8856 U00:村
9620 U00:束
3068 U00:条
9728 U00:来
7408 U00:杭
4028 U00:板
9788 U00:果
7448 U00:某
8384 U00:查
7032 U00:标
9380 U00:校
4720 U00:样
6188 U00:格
3768 U00:桌
1204 U00:档
5260 U00:桥
4052 U00:椅
2120 U00:概
8740 U00:模
10268 U00:次
10096 U00:歇
2564 U00:正
3148 U00:此
6608 U00:步
6948 U00:段
7528 U00:每
7952 U00:比
2620 U00:毯
7836 U00:气
7072 U00:求
5880 U00:江
8208 U00:池
4988 U00:没
4460 U00:波
3592 U00:活
7992 U00:浓
5372 U00:浦
1440 U00:海
4272 U00:深
9500 U00:港
8940 U00:湖
1020 U00:湾
8980 U00:源
5172 U00:火
4908 U00:点
5604 U00:烦
4196 U00:片
9928 U00:物
8456 U00:特
3404 U00:现
5872 U00:珠
2816 U00:理
5528 U00:用
3748 U00:由
820 U00:番
972 U00:白
1240 U00:的
2168 U00:看
7352 U00:知
5348 U00:码
10568 U00:确
8672 U00:礼
9828 U00:福
840 U00:禺
8328 U00:离
3484 U00:租
3868 U00:移
3376 U00:程
4768 U00:稍
3888 U00:空
5200 U00:站
4064 U00:等
10040 U00:筒
2660 U00:算
10340 U00:箱
3708 U00:米
7644 U00:类
6520 U00:系
8432 U00:索
8068 U00:繁
7900 U00:约
1120 U00:级
1940 U00:纳
3792 U00:组
2800 U00:经
9612 U00:结
5700 U00:给
7008 U00:编
2892 U00:网
8932 U00:罗
4704 U00:置
4340 U00:者
6508 U00:联
3116 U00:能
10208 U00:腾
6228 U00:至
9168 U00:致
6748 U00:舞
888 U00:花
8048 U00:苏
9012 U00:范
10084 U00:茶
9752 U00:草
2256 U00:荐
1012 U00:荔
10628 U00:莞
8444 U00:菲
5252 U00:虹
6364 U00:行
6284 U00:西
2060 U00:要
8732 U00:规
8124 U00:解
6328 U00:计
7192 U00:订
3820 U00:讨
3344 U00:训
320 U00:议
9988 U00:讲
3836 U00:论
6816 U00:设
10028 U00:话
2860 U00:询
7140 U00:该
10308 U00:说
1852 U00:请
3360 U00:课
6064 U00:谈
5724 U00:谢
4444 U00:象
7200 U00:货
9868 U00:贸
6888 U00:费
8972 U00:资
6632 U00:超
5944 U00:路
5184 U00:车
9908 U00:较
5964 U00:边
6640 U00:过
3564 U00:近
1888 U00:还
6484 U00:这
10248 U00:连
7096 U00:述
8528 U00:退
2212 U00:适
7712 U00:选
5120 U00:通
7360 U00:道
7892 U00:邀
4928 U00:那
10332 U00:邮
6972 U00:部
900 U00:都
10008 U00:配
1140 U00:酒
6152 U00:里
8492 U00:金
6668 U00:钟
4556 U00:钱
5428 U00:铁
7604 U00:铺
2772 U00:销
10388 U00:镇
9952 U00:长
2456 U00:门
9136 U00:闭
1860 U00:问
556 U00:间
10548 U00:闸
7168 U00:闻
9560 U00:阳
5216 U00:附
7260 U00:院
780 U00:除
8500 U00:陵
10132 U00:隆
8708 U00:随
3440 U00:集
2052 U00:需
5396 U00:靠
2924 U00:面
6788 U00:音
2900 U00:页
4496 U00:顿
9692 U00:颁
2652 U00:预
7040 U00:题
10140 U00:飞
444 U00:餐
6720 U00:饭
460 U00:饮
5920 U00:马
5840 U00:骨
7788 U00:高
5832 U00:鱼
5592 U00:麻
8788 U00:齐
1540 U00:龙
1676 U00:！
476 U00:（
660 U00:）
760 U00:，
1984 U00:－
1368 U00:：
6688 U00:；
2020 U00:？
4 U01:0
224 U01:1
8 U02:0
228 U02:1
12 U03:0
104 U03:1
16 U04:0
368 U04:1
10064 U10:+
5664 U10:,
1052 U10:-
5044 U10:.
7544 U10:/
108 U10:0
20 U10:1
584 U10:2
1384 U10:3
1032 U10:4
1068 U10:5
596 U10:6
1952 U10:7
632 U10:8
2284 U10:9
3660 U10::
8024 U10:;
9204 U10:?
10180 U10:U
6844 U10:W
256 U10:^
10660 U10:_B+1
6424 U10:~
608 U10:—
344 U10:、
1244 U10:。
1704 U10:一
2316 U10:七
5064 U10:三
1424 U10:上
1324 U10:下
3268 U10:不
5376 U10:东
2184 U10:两
2072 U10:个
7664 U10:中
3684 U10:为
7912 U10:主
480 U10:举
2144 U10:么
3724 U10:之
1508 U10:九
3896 U10:也
784 U10:了
1716 U10:二
1792 U10:于
976 U10:云
5796 U10:五
2964 U10:些
5104 U10:交
6376 U10:产
9416 U10:享
3252 U10:京
1460 U10:人
5324 U10:什
10284 U10:从
4996 U10:他
1756 U10:以
3984 U10:仪
1496 U10:们
3072 U10:件
5436 U10:价
4304 U10:份
5996 U10:休
280 U10:会
10404 U10:伦
8164 U10:估
9524 U10:似
9804 U10:但
5452 U10:位
372 U10:住
4236 U10:体
9276 U10:何
5556 U10:作
712 U10:你
8084 U10:使
4152 U10:供
6572 U10:侨
5132 U10:便
3504 U10:信
3488 U10:借
8828 U10:假
10604 U10:偏
4624 U10:做
5016 U10:像
5284 U10:元
8104 U10:先
8304 U10:入
5640 U10:全
8624 U10:八
5304 U10:公
4884 U10:六
9224 U10:共
9108 U10:关
8404 U10:其
3924 U10:具
2684 U10:内
4584 U10:再
3012 U10:况
4824 U10:准
5484 U10:几
10484 U10:出
5784 U10:分
8264 U10:划
6444 U10:刚
6344 U10:初
7504 U10:利
4404 U10:到
7384 U10:前
7244 U10:剧
500 U10:办
9456 U10:加
6036 U10:务
3596 U10:动
6204 U10:包
7816 U10:化
3232 U10:北
844 U10:区
7584 U10:十
4864 U10:午
692 U10:半
6556 U10:华
6544 U10:南
5760 U10:厅
7996 U10:厚
6156 U10:去
9444 U10:参
4212 U10:及
5984 U10:双
6396 U10:发
6304 U10:口
4424 U10:古
10504 U10:另
7224 U10:只
6244 U10:召
1740 U10:可
6752 U10:台
2524 U10:右
1284 U10:号
3164 U10:司
6704 U10:吃
2216 U10:合
9096 U10:名
10224 U10:后
2004 U10:吗
8584 U10:否
4364 U10:吧
6864 U10:含
6976 U10:员
8604 U10:呢
1296 U10:周
7464 U10:呵
6456 U10:和
2844 U10:咨
4724 U10:品
6792 U10:响
8344 U10:哦
3044 U10:哪
2724 U10:唐
2776 U10:售
6024 U10:商
4940 U10:嘉
9664 U10:四
7624 U10:园
9016 U10:围
2428 U10:国
4168 U10:图
8764 U10:圆
2404 U10:在
2596 U10:地
4276 U10:圳
1824 U10:场
9044 U10:址
7864 U10:均
4844 U10:坐
9756 U10:坪
8556 U10:型
5892 U10:城
9084 U10:域
3324 U10:培
2976 U10:基
936 U10:塘
4464 U10:士
3936 U10:备
7756 U10:外
4524 U10:多
7424 U10:夜
9184 U10:够
2104 U10:大
672 U10:天
9536 U10:太
9696 U10:奖
732 U10:好
7956 U10:如
3216 U10:始
9884 U10:子
9352 U10:学
9956 U10:宁
6104 U10:安
3284 U10:定
6084 U10:宜
8184 U10:宝
324 U10:室
10424 U10:宴
5496 U10:家
1924 U10:容
7296 U10:宿
3176 U10:将
8544 U10:小
4536 U10:少
7316 U10:就
4120 U10:尽
10584 U10:尾
4636 U10:展
1544 U10:山
9564 U10:岛
8804 U10:岸
2376 U10:州
5540 U10:工
2508 U10:左
4964 U10:已
3624 U10:市
4788 U10:布
4068 U10:希
8244 U10:带
8364 U10:帮
10464 U10:常
2484 U10:平
1404 U10:年
2364 U10:广
7124 U10:应
232 U10:底
1144 U10:店
9844 U10:庙
8816 U10:度
6264 U10:延
2416 U10:建
3204 U10:开
5744 U10:式
2576 U10:形
3964 U10:影
3416 U10:征
8144 U10:待
1564 U10:很
4772 U10:微
8224 U10:心
8904 U10:忙
2304 U10:快
10164 U10:怡
7564 U10:恩
3524 U10:息
2704 U10:您
2992 U10:情
1772 U10:想
1604 U10:意
1584 U10:愿
3796 U10:成
1484 U10:我
4324 U10:或
7744 U10:户
392 U10:房
3464 U10:所
3088 U10:才
9056 U10:打
9264 U10:执
4604 U10:找
1624 U10:承
5608 U10:把
3948 U10:投
5684 U10:报
10524 U10:拓
8676 U10:拜
7716 U10:择
7684 U10:括
6116 U10:排
1644 U10:接
2228 U10:推
7076 U10:描
4136 U10:提
9644 U10:搞
6904 U10:搭
10444 U10:摄
9292 U10:操
10364 U10:收
4676 U10:放
5084 U10:数
6924 U10:整
7804 U10:文
920 U10:新
2496 U10:方
8284 U10:旁
7284 U10:无
1308 U10:日
3644 U10:早
4384 U10:旬
520 U10:时
9244 U10:明
1084 U10:星
2344 U10:是
9484 U10:晓
4664 U10:晚
9324 U10:晴
7484 U10:暂
8884 U10:最
172 U10:月
1184 U10:有
9336 U10:朗
4084 U10:望
2736 U10:朝
1208 U10:期
8644 U10:未
2944 U10:末
1896 U10:本
9404 U10:术
8844 U10:村
9616 U10:束
3056 U10:条
9724 U10:来
7404 U10:杭
4020 U10:板
9784 U10:果
7444 U10:某
8376 U10:查
7024 U10:标
9372 U10:校
4708 U10:样
6184 U10:格
3760 U10:桌
1196 U10:档
5256 U10:桥
4044 U10:椅
2116 U10:概
8736 U10:模
10264 U10:次
10088 U10:歇
2552 U10:正
3140 U10:此
6604 U10:步
6944 U10:段
7524 U10:每
7944 U10:比
2612 U10:毯
7828 U10:气
7064 U10:求
5876 U10:江
8200 U10:池
4984 U10:没
4448 U10:波
3584 U10:活
7984 U10:浓
5364 U10:浦
1436 U10:海
4264 U10:深
9496 U10:港
8936 U10:湖
1016 U10:湾
8976 U10:源
5164 U10:火
4904 U10:点
5596 U10:烦
4184 U10:片
9924 U10:物
8448 U10:特
3392 U10:现
5864 U10:珠
2804 U10:理
5524 U10:用
3744 U10:由
804 U10:番
960 U10:白
1224 U10:的
2164 U10:看
7344 U10:知
5344 U10:码
10564 U10:确
8664 U10:礼
9824 U10:福
824 U10:禺
8324 U10:离
3476 U10:租
3864 U10:移
3364 U10:程
4752 U10:稍
3880 U10:空
5188 U10:站
4056 U10:等
10032 U10:筒
2656 U10:算
10336 U10:箱
3704 U10:米
7636 U10:类
6512 U10:系
8424 U10:索
8064 U10:繁
7896 U10:约
1104 U10:级
1936 U10:纳
3780 U10:组
2788 U10:经
9604 U10:结
5696 U10:给
7004 U10:编
2884 U10:网
8924 U10:罗
4692 U10:置
4336 U10:者
6496 U10:联
3104 U10:能
10204 U10:腾
6224 U10:至
9164 U10:致
6732 U10:舞
872 U10:花
8044 U10:苏
9004 U10:范
10076 U10:茶
9744 U10:草
2244 U10:荐
1000 U10:荔
10624 U10:莞
8436 U10:菲
5244 U10:虹
6356 U10:行
6276 U10:西
2056 U10:要
8724 U10:规
8116 U10:解
6324 U10:计
7184 U10:订
3808 U10:讨
3336 U10:训
308 U10:议
9984 U10:讲
3824 U10:论
6808 U10:设
10016 U10:话
2856 U10:询
7136 U10:该
10304 U10:说
1844 U10:请
3348 U10:课
6052 U10:谈
5712 U10:谢
4436 U10:象
7196 U10:货
9864 U10:贸
6880 U10:费
8964 U10:资
6620 U10:超
5932 U10:路
5176 U10:车
9904 U10:较
5956 U10:边
6636 U10:过
3552 U10:近
1880 U10:还
6476 U10:这
10244 U10:连
7088 U10:述
8524 U10:退
2204 U10:适
7704 U10:选
5116 U10:通
7356 U10:道
7884 U10:邀
4924 U10:那
10324 U10:邮
6964 U10:部
892 U10:都
10004 U10:配
1124 U10:酒
6144 U10:里
8484 U10:金
6664 U10:钟
4548 U10:钱
5420 U10:铁
7596 U10:铺
2764 U10:销
10384 U10:镇
9944 U10:长
2444 U10:门
9124 U10:闭
1856 U10:问
540 U10:间
10544 U10:闸
7164 U10:闻
9548 U10:阳
5204 U10:附
7256 U10:院
764 U10:除
8496 U10:陵
10124 U10:隆
8704 U10:随
3432 U10:集
2044 U10:需
5388 U10:靠
2912 U10:面
6772 U10:音
2896 U10:页
4484 U10:顿
9684 U10:颁
2644 U10:预
7036 U10:题
10136 U10:飞
428 U10:餐
6716 U10:饭
448 U10:饮
5912 U10:马
5836 U10:骨
7780 U10:高
5824 U10:鱼
5584 U10:麻
8784 U10:齐
1524 U10:龙
1664 U10:！
464 U10:（
652 U10:）
748 U10:，
1976 U10:－
1360 U10:：
6680 U10:；
2016 U10:？
24 U11:0
176 U11:1
10664 U11:_B+1
28 U12:0
180 U12:1
10668 U12:_B+1
184 U13:0
32 U13:1
10672 U13:_B+1
36 U14:0
348 U14:1
10676 U14:_B+1
10092 U20:+
5672 U20:,
1088 U20:-
5052 U20:.
7552 U20:/
236 U20:0
188 U20:1
612 U20:2
1392 U20:3
1072 U20:4
1108 U20:5
620 U20:6
1980 U20:7
664 U20:8
2292 U20:9
3672 U20::
8032 U20:;
9212 U20:?
10192 U20:U
6852 U20:W
112 U20:^
40 U20:_B-1
6432 U20:~
636 U20:—
396 U20:、
1268 U20:。
1720 U20:一
2328 U20:七
5072 U20:三
1444 U20:上
1348 U20:下
3300 U20:不
5400 U20:东
2192 U20:两
2092 U20:个
7672 U20:中
3692 U20:为
7932 U20:主
524 U20:举
2152 U20:么
3732 U20:之
1548 U20:九
3912 U20:也
828 U20:了
1732 U20:二
1808 U20:于
988 U20:云
5808 U20:五
2984 U20:些
5124 U20:交
6400 U20:产
9432 U20:享
3288 U20:京
1472 U20:人
5332 U20:什
10292 U20:从
5020 U20:他
1776 U20:以
4008 U20:仪
1528 U20:们
3108 U20:件
5464 U20:价
4312 U20:份
6008 U20:休
328 U20:会
10412 U20:伦
8172 U20:估
9552 U20:似
9812 U20:但
5468 U20:位
412 U20:住
4252 U20:体
9304 U20:何
5568 U20:作
752 U20:你
8092 U20:使
4188 U20:供
6588 U20:侨
5152 U20:便
3540 U20:信
3528 U20:借
8860 U20:假
10612 U20:偏
4640 U20:做
5032 U20:像
5292 U20:元
8120 U20:先
8312 U20:入
5652 U20:全
8632 U20:八
5312 U20:公
4892 U20:六
9232 U20:共
9140 U20:关
8412 U20:其
3952 U20:具
2692 U20:内
4592 U20:再
3028 U20:况
4832 U20:准
5504 U20:几
10492 U20:出
5804 U20:分
8272 U20:划
6460 U20:刚
6360 U20:初
7512 U20:利
4412 U20:到
7392 U20:前
7264 U20:剧
544 U20:办
9468 U20:加
6056 U20:务
3608 U20:动
6212 U20:包
7840 U20:化
3272 U20:北
876 U20:区
7600 U20:十
4872 U20:午
716 U20:半
6584 U20:华
6560 U20:南
5772 U20:厅
8008 U20:厚
6168 U20:去
9464 U20:参
4240 U20:及
6004 U20:双
6412 U20:发
6312 U20:口
4452 U20:古
10512 U20:另
7232 U20:只
6252 U20:召
1764 U20:可
6776 U20:台
2556 U20:右
1312 U20:号
3184 U20:司
6724 U20:吃
2248 U20:合
9128 U20:名
10232 U20:后
2024 U20:吗
8592 U20:否
4372 U20:吧
6872 U20:含
6988 U20:员
8612 U20:呢
1328 U20:周
7472 U20:呵
6480 U20:和
2864 U20:咨
4756 U20:品
6820 U20:响
8352 U20:哦
3060 U20:哪
2744 U20:唐
2808 U20:售
6044 U20:商
4952 U20:嘉
9672 U20:四
7640 U20:园
9028 U20:围
2460 U20:国
4200 U20:图
8772 U20:圆
2432 U20:在
2624 U20:地
4288 U20:圳
1832 U20:场
9064 U20:址
7872 U20:均
4852 U20:坐
9768 U20:坪
8568 U20:型
5924 U20:城
9112 U20:域
3352 U20:培
2996 U20:基
948 U20:塘
4500 U20:士
3968 U20:备
7768 U20:外
4552 U20:多
7432 U20:夜
9192 U20:够
2124 U20:大
704 U20:天
9568 U20:太
9708 U20:奖
768 U20:好
7968 U20:如
3236 U20:始
9892 U20:子
9384 U20:学
9968 U20:宁
6124 U20:安
3308 U20:定
6092 U20:宜
8192 U20:宝
376 U20:室
10432 U20:宴
5508 U20:家
1944 U20:容
7320 U20:宿
3188 U20:将
8564 U20:小
4560 U20:少
7332 U20:就
4140 U20:尽
10592 U20:尾
4652 U20:展
1588 U20:山
9588 U20:岛
8832 U20:岸
2388 U20:州
5564 U20:工
2540 U20:左
4972 U20:已
3632 U20:市
4808 U20:布
4100 U20:希
8252 U20:带
8380 U20:帮
10472 U20:常
2512 U20:平
1412 U20:年
2384 U20:广
7144 U20:应
284 U20:底
1168 U20:店
9852 U20:庙
8848 U20:度
6280 U20:延
2448 U20:建
3224 U20:开
5752 U20:式
2600 U20:形
4000 U20:影
3444 U20:征
8152 U20:待
1608 U20:很
4800 U20:微
8232 U20:心
8912 U20:忙
2324 U20:快
10172 U20:怡
7572 U20:恩
3556 U20:息
2712 U20:您
3024 U20:情
1804 U20:想
1648 U20:意
1628 U20:愿
3828 U20:成
1512 U20:我
4344 U20:或
7764 U20:户
432 U20:房
3492 U20:所
3120 U20:才
9068 U20:打
9280 U20:执
4612 U20:找
1668 U20:承
5628 U20:把
3988 U20:投
5704 U20:报
10532 U20:拓
8688 U20:拜
7728 U20:择
7692 U20:括
6128 U20:排
1680 U20:接
2260 U20:推
7100 U20:描
4172 U20:提
9652 U20:搞
6912 U20:搭
10452 U20:摄
9308 U20:操
10372 U20:收
4712 U20:放
5092 U20:数
6932 U20:整
7832 U20:文
944 U20:新
2528 U20:方
8292 U20:旁
7300 U20:无
1340 U20:日
3652 U20:早
4392 U20:旬
560 U20:时
9252 U20:明
1128 U20:星
2352 U20:是
9504 U20:晓
4680 U20:晚
9344 U20:晴
7492 U20:暂
8892 U20:最
260 U20:月
1212 U20:有
9356 U20:朗
4108 U20:望
2748 U20:朝
1248 U20:期
8652 U20:未
2952 U20:末
1912 U20:本
9420 U20:术
8868 U20:村
9628 U20:束
3092 U20:条
9732 U20:来
7412 U20:杭
4032 U20:板
9792 U20:果
7452 U20:某
8392 U20:查
7044 U20:标
9388 U20:校
4740 U20:样
6192 U20:格
3772 U20:桌
1228 U20:档
5268 U20:桥
4072 U20:椅
2128 U20:概
8748 U20:模
10272 U20:次
10108 U20:歇
2580 U20:正
3152 U20:此
6612 U20:步
6952 U20:段
7532 U20:每
7964 U20:比
2628 U20:毯
7848 U20:气
7092 U20:求
5896 U20:江
8212 U20:池
5000 U20:没
4488 U20:波
3604 U20:活
8004 U20:浓
5392 U20:浦
1448 U20:海
4284 U20:深
9508 U20:港
8948 U20:湖
1036 U20:湾
8988 U20:源
5192 U20:火
4912 U20:点
5620 U20:烦
4216 U20:片
9932 U20:物
8468 U20:特
3420 U20:现
5884 U20:珠
2828 U20:理
5532 U20:用
3752 U20:由
848 U20:番
984 U20:白
1260 U20:的
2172 U20:看
7364 U20:知
5352 U20:码
10572 U20:确
8684 U20:礼
9832 U20:福
860 U20:禺
8332 U20:离
3508 U20:租
3872 U20:移
3396 U20:程
4792 U20:稍
3900 U20:空
5220 U20:站
4088 U20:等
10048 U20:筒
2668 U20:算
10348 U20:箱
3712 U20:米
7652 U20:类
6528 U20:系
8452 U20:索
8072 U20:繁
7916 U20:约
1148 U20:级
1956 U20:纳
3812 U20:组
2820 U20:经
9624 U20:结
5716 U20:给
7012 U20:编
2904 U20:网
8944 U20:罗
4728 U20:置
4348 U20:者
6524 U20:联
3128 U20:能
10212 U20:腾
6232 U20:至
9172 U20:致
6764 U20:舞
904 U20:花
8052 U20:苏
9024 U20:范
10100 U20:茶
9764 U20:草
2268 U20:荐
1024 U20:荔
10632 U20:莞
8460 U20:菲
5264 U20:虹
6380 U20:行
6292 U20:西
2076 U20:要
8744 U20:规
8132 U20:解
6332 U20:计
7204 U20:订
3840 U20:讨
3368 U20:训
352 U20:议
9992 U20:讲
3848 U20:论
6828 U20:设
10044 U20:话
2868 U20:询
7148 U20:该
10312 U20:说
1864 U20:请
3380 U20:课
6072 U20:谈
5732 U20:谢
4468 U20:象
7208 U20:货
9872 U20:贸
6892 U20:费
8984 U20:资
6644 U20:超
5960 U20:路
5208 U20:车
9912 U20:较
5972 U20:边
6648 U20:过
3572 U20:近
1900 U20:还
6500 U20:这
10252 U20:连
7108 U20:述
8532 U20:退
2232 U20:适
7724 U20:选
5136 U20:通
7368 U20:道
7904 U20:邀
4932 U20:那
10344 U20:邮
6984 U20:部
908 U20:都
10020 U20:配
1160 U20:酒
6164 U20:里
8504 U20:金
6672 U20:钟
4568 U20:钱
5440 U20:铁
7612 U20:铺
2792 U20:销
10392 U20:镇
9964 U20:长
2468 U20:门
9148 U20:闭
1868 U20:问
568 U20:间
10552 U20:闸
7172 U20:闻
9580 U20:阳
5228 U20:附
7268 U20:院
808 U20:除
8508 U20:陵
10144 U20:隆
8712 U20:随
3448 U20:集
2064 U20:需
5408 U20:靠
2932 U20:面
6812 U20:音
2916 U20:页
4508 U20:顿
9704 U20:颁
2664 U20:预
7048 U20:题
10148 U20:飞
468 U20:餐
6736 U20:饭
484 U20:饮
5936 U20:马
5848 U20:骨
7792 U20:高
5844 U20:鱼
5612 U20:麻
8792 U20:齐
1568 U20:龙
1688 U20:！
504 U20:（
676 U20:）
788 U20:，
1992 U20:－
1372 U20:：
6692 U20:；
2028 U20:？
116 U21:0
264 U21:1
44 U21:_B-1
120 U22:0
268 U22:1
48 U22:_B-1
124 U23:0
192 U23:1
52 U23:_B-1
128 U24:0
400 U24:1
56 U24:_B-1
10060 U30:+
5660 U30:,
1040 U30:-
5040 U30:.
7540 U30:/
60 U30:0
548 U30:1
576 U30:2
1380 U30:3
1028 U30:4
1056 U30:5
588 U30:6
1948 U30:7
624 U30:8
2280 U30:9
3656 U30::
8020 U30:;
9200 U30:?
10176 U30:U
6840 U30:W
240 U30:^
10640 U30:_B+1
10680 U30:_B+2
6420 U30:~
600 U30:—
332 U30:、
1232 U30:。
1700 U30:一
2308 U30:七
5060 U30:三
1420 U30:上
1316 U30:下
3256 U30:不
5368 U30:东
2180 U30:两
2068 U30:个
7660 U30:中
3680 U30:为
7908 U30:主
472 U30:举
2140 U30:么
3720 U30:之
1500 U30:九
3892 U30:也
772 U30:了
1712 U30:二
1780 U30:于
964 U30:云
5788 U30:五
2960 U30:些
5100 U30:交
6368 U30:产
9412 U30:享
3240 U30:京
1452 U30:人
5320 U30:什
10280 U30:从
4992 U30:他
1744 U30:以
3972 U30:仪
1488 U30:们
3064 U30:件
5432 U30:价
4300 U30:份
5988 U30:休
272 U30:会
10400 U30:伦
8160 U30:估
9520 U30:似
9800 U30:但
5444 U30:位
356 U30:住
4228 U30:体
9272 U30:何
5544 U30:作
708 U30:你
8080 U30:使
4144 U30:供
6564 U30:侨
5128 U30:便
3496 U30:信
3480 U30:借
8820 U30:假
10600 U30:偏
4616 U30:做
5008 U30:像
5280 U30:元
8100 U30:先
8300 U30:入
5632 U30:全
8620 U30:八
5300 U30:公
4880 U30:六
9220 U30:共
9100 U30:关
8400 U30:其
3920 U30:具
2680 U30:内
4580 U30:再
3000 U30:况
4820 U30:准
5480 U30:几
10480 U30:出
5780 U30:分
8260 U30:划
6440 U30:刚
6336 U30:初
7500 U30:利
4400 U30:到
7380 U30:前
7240 U30:剧
488 U30:办
9448 U30:加
6028 U30:务
3588 U30:动
6200 U30:包
7808 U30:化
3228 U30:北
832 U30:区
7580 U30:十
4860 U30:午
680 U30:半
6552 U30:华
6540 U30:南
5756 U30:厅
7988 U30:厚
6148 U30:去
9440 U30:参
4204 U30:及
5980 U30:双
6388 U30:发
6300 U30:口
4420 U30:古
10500 U30:另
7220 U30:只
6240 U30:召
1736 U30:可
6740 U30:台
2516 U30:右
1280 U30:号
3160 U30:司
6700 U30:吃
2208 U30:合
9088 U30:名
10220 U30:后
2000 U30:吗
8580 U30:否
4356 U30:吧
6860 U30:含
6968 U30:员
8600 U30:呢
1288 U30:周
7460 U30:呵
6452 U30:和
2836 U30:咨
4716 U30:品
6780 U30:响
8340 U30:哦
3036 U30:哪
2720 U30:唐
2768 U30:售
6020 U30:商
4936 U30:嘉
9660 U30:四
7620 U30:园
9008 U30:围
2420 U30:国
4156 U30:图
8760 U30:圆
2400 U30:在
2588 U30:地
4268 U30:圳
1820 U30:场
9040 U30:址
7860 U30:均
4840 U30:坐
9748 U30:坪
8548 U30:型
5888 U30:城
9080 U30:域
3316 U30:培
2968 U30:基
924 U30:塘
4456 U30:士
3928 U30:备
7748 U30:外
4520 U30:多
7420 U30:夜
9180 U30:够
2096 U30:大
668 U30:天
9528 U30:太
9688 U30:奖
720 U30:好
7948 U30:如
3208 U30:始
9880 U30:子
9348 U30:学
9948 U30:宁
6100 U30:安
3276 U30:定
6080 U30:宜
8180 U30:宝
312 U30:室
10420 U30:宴
5488 U30:家
1920 U30:容
7292 U30:宿
3168 U30:将
8540 U30:小
4528 U30:少
7308 U30:就
4112 U30:尽
10580 U30:尾
4632 U30:展
1532 U30:山
9556 U30:岛
8800 U30:岸
2368 U30:州
5536 U30:工
2500 U30:左
4960 U30:已
3616 U30:市
4776 U30:布
4060 U30:希
8240 U30:带
8360 U30:帮
10460 U30:常
2480 U30:平
1400 U30:年
2360 U30:广
7120 U30:应
196 U30:底
1132 U30:店
9840 U30:庙
8808 U30:度
6260 U30:延
2408 U30:建
3200 U30:开
5740 U30:式
2568 U30:形
3956 U30:影
3408 U30:征
8140 U30:待
1552 U30:很
4760 U30:微
8220 U30:心
8900 U30:忙
2300 U30:快
10156 U30:怡
7560 U30:恩
3512 U30:息
2700 U30:您
2988 U30:情
1768 U30:想
1592 U30:意
1572 U30:愿
3784 U30:成
1476 U30:我
4316 U30:或
7736 U30:户
380 U30:房
3456 U30:所
3076 U30:才
9048 U30:打
9260 U30:执
4600 U30:找
1612 U30:承
5600 U30:把
3940 U30:投
5680 U30:报
10520 U30:拓
8668 U30:拜
7708 U30:择
7680 U30:括
6108 U30:排
1632 U30:接
2220 U30:推
7068 U30:描
4132 U30:提
9640 U30:搞
6900 U30:搭
10440 U30:摄
9284 U30:操
10360 U30:收
4672 U30:放
5080 U30:数
6920 U30:整
7800 U30:文
912 U30:新
2488 U30:方
8280 U30:旁
7280 U30:无
1300 U30:日
3640 U30:早
4380 U30:旬
508 U30:时
9240 U30:明
1076 U30:星
2340 U30:是
9480 U30:晓
4660 U30:晚
9320 U30:晴
7480 U30:暂
8880 U30:最
132 U30:月
1180 U30:有
9328 U30:朗
4076 U30:望
2728 U30:朝
1200 U30:期
8640 U30:未
2940 U30:末
1892 U30:本
9400 U30:术
8836 U30:村
9608 U30:束
3052 U30:条
9720 U30:来
7400 U30:杭
4012 U30:板
9780 U30:果
7440 U30:某
8372 U30:查
7020 U30:标
9360 U30:校
4696 U30:样
6180 U30:格
3756 U30:桌
1188 U30:档
5248 U30:桥
4040 U30:椅
2108 U30:概
8728 U30:模
10260 U30:次
10080 U30:歇
2544 U30:正
3132 U30:此
6596 U30:步
6936 U30:段
7520 U30:每
7940 U30:比
2604 U30:毯
7820 U30:气
7060 U30:求
5868 U30:江
8196 U30:池
4980 U30:没
4440 U30:波
3576 U30:活
7980 U30:浓
5360 U30:浦
1428 U30:海
4260 U30:深
9488 U30:港
8928 U30:湖
1004 U30:湾
8968 U30:源
5160 U30:火
4900 U30:点
5588 U30:烦
4176 U30:片
9920 U30:物
8440 U30:特
3384 U30:现
5860 U30:珠
2796 U30:理
5520 U30:用
3740 U30:由
792 U30:番
952 U30:白
1216 U30:的
2156 U30:看
7340 U30:知
5340 U30:码
10560 U30:确
8660 U30:礼
9820 U30:福
812 U30:禺
8320 U30:离
3468 U30:租
3856 U30:移
3356 U30:程
4744 U30:稍
3876 U30:空
5180 U30:站
4048 U30:等
10024 U30:筒
2648 U30:算
10328 U30:箱
3700 U30:米
7632 U30:类
6504 U30:系
8420 U30:索
8060 U30:繁
7888 U30:约
1092 U30:级
1928 U30:纳
3776 U30:组
2780 U30:经
9600 U30:结
5688 U30:给
7000 U30:编
2880 U30:网
8916 U30:罗
4684 U30:置
4328 U30:者
6488 U30:联
3096 U30:能
10200 U30:腾
6220 U30:至
9160 U30:致
6728 U30:舞
864 U30:花
8040 U30:苏
9000 U30:范
10068 U30:茶
9740 U30:草
2236 U30:荐
992 U30:荔
10620 U30:莞
8428 U30:菲
5240 U30:虹
6352 U30:行
6272 U30:西
2048 U30:要
8720 U30:规
8112 U30:解
6320 U30:计
7180 U30:订
3800 U30:讨
3328 U30:训
288 U30:议
9980 U30:讲
3816 U30:论
6796 U30:设
10012 U30:话
2848 U30:询
7128 U30:该
10300 U30:说
1836 U30:请
3340 U30:课
6048 U30:谈
5708 U30:谢
4428 U30:象
7188 U30:货
9860 U30:贸
6876 U30:费
8960 U30:资
6616 U30:超
5928 U30:路
5168 U30:车
9900 U30:较
5948 U30:边
6624 U30:过
3544 U30:近
1872 U30:还
6468 U30:这
10240 U30:连
7080 U30:述
8520 U30:退
2200 U30:适
7700 U30:选
5108 U30:通
7348 U30:道
7880 U30:邀
4920 U30:那
10320 U30:邮
6960 U30:部
880 U30:都
10000 U30:配
1112 U30:酒
6140 U30:里
8480 U30:金
6656 U30:钟
4540 U30:钱
5412 U30:铁
7592 U30:铺
2756 U30:销
10380 U30:镇
9940 U30:长
2436 U30:门
9116 U30:闭
1848 U30:问
528 U30:间
10540 U30:闸
7160 U30:闻
9540 U30:阳
5196 U30:附
7248 U30:院
756 U30:除
8488 U30:陵
10120 U30:隆
8700 U30:随
3424 U30:集
2040 U30:需
5380 U30:靠
2908 U30:面
6768 U30:音
2888 U30:页
4472 U30:顿
9680 U30:颁
2636 U30:预
7028 U30:题
10128 U30:飞
416 U30:餐
6708 U30:饭
436 U30:饮
5900 U30:马
5828 U30:骨
7772 U30:高
5816 U30:鱼
5576 U30:麻
8780 U30:齐
1516 U30:龙
1652 U30:！
452 U30:（
640 U30:）
736 U30:，
1968 U30:－
1352 U30:：
6676 U30:；
2008 U30:？
64 U31:0
136 U31:1
10644 U31:_B+1
10684 U31:_B+2
68 U32:0
140 U32:1
10648 U32:_B+1
10688 U32:_B+2
144 U33:0
72 U33:1
10652 U33:_B+1
10692 U33:_B+2
76 U34:0
336 U34:1
10656 U34:_B+1
10696 U34:_B+2
10104 U40:+
5676 U40:,
1116 U40:-
5056 U40:.
7556 U40:/
276 U40:0
244 U40:1
628 U40:2
1396 U40:3
1096 U40:4
1136 U40:5
644 U40:6
1988 U40:7
684 U40:8
2296 U40:9
3676 U40::
8036 U40:;
9216 U40:?
10196 U40:U
6856 U40:W
200 U40:^
148 U40:_B-1
80 U40:_B-2
6436 U40:~
656 U40:—
420 U40:、
1276 U40:。
1728 U40:一
2336 U40:七
5076 U40:三
1456 U40:上
1364 U40:下
3312 U40:不
5416 U40:东
2196 U40:两
2100 U40:个
7676 U40:中
3696 U40:为
7936 U40:主
552 U40:举
2160 U40:么
3736 U40:之
1576 U40:九
3916 U40:也
852 U40:了
1748 U40:二
1816 U40:于
1008 U40:云
5820 U40:五
3004 U40:些
5140 U40:交
6408 U40:产
9436 U40:享
3304 U40:京
1480 U40:人
5336 U40:什
10296 U40:从
5028 U40:他
1796 U40:以
4024 U40:仪
1556 U40:们
3124 U40:件
5472 U40:价
4320 U40:份
6016 U40:休
360 U40:会
10416 U40:伦
8176 U40:估
9572 U40:似
9816 U40:但
5476 U40:位
440 U40:住
4256 U40:体
9312 U40:何
5580 U40:作
776 U40:你
8096 U40:使
4208 U40:供
6600 U40:侨
5156 U40:便
3560 U40:信
3548 U40:借
8872 U40:假
10616 U40:偏
4648 U40:做
5036 U40:像
5296 U40:元
8128 U40:先
8316 U40:入
5656 U40:全
8636 U40:八
5316 U40:公
4896 U40:六
9236 U40:共
9152 U40:关
8416 U40:其
3976 U40:具
2696 U40:内
4596 U40:再
3040 U40:况
4836 U40:准
5512 U40:几
10496 U40:出
5812 U40:分
8276 U40:划
6472 U40:刚
6372 U40:初
7516 U40:利
4416 U40:到
7396 U40:前
7272 U40:剧
564 U40:办
9476 U40:加
6068 U40:务
3620 U40:动
6216 U40:包
7852 U40:化
3292 U40:北
896 U40:区
7608 U40:十
4876 U40:午
740 U40:半
6592 U40:华
6576 U40:南
5776 U40:厅
8016 U40:厚
6176 U40:去
9472 U40:参
4248 U40:及
6012 U40:双
6416 U40:发
6316 U40:口
4476 U40:古
10516 U40:另
7236 U40:只
6256 U40:召
1784 U40:可
6800 U40:台
2572 U40:右
1332 U40:号
3192 U40:司
6744 U40:吃
2264 U40:合
9144 U40:名
10236 U40:后
2032 U40:吗
8596 U40:否
4376 U40:吧
6884 U40:含
6996 U40:员
8616 U40:呢
1344 U40:周
7476 U40:呵
6492 U40:和
2872 U40:咨
4780 U40:品
6832 U40:响
8356 U40:哦
3080 U40:哪
2752 U40:唐
2824 U40:售
6060 U40:商
4956 U40:嘉
9676 U40:四
7648 U40:园
9036 U40:围
2472 U40:国
4220 U40:图
8776 U40:圆
2452 U40:在
2632 U40:地
4296 U40:圳
1840 U40:场
9072 U40:址
7876 U40:均
4856 U40:坐
9776 U40:坪
8576 U40:型
5940 U40:城
9132 U40:域
3372 U40:培
3016 U40:基
968 U40:塘
4512 U40:士
3992 U40:备
7784 U40:外
4564 U40:多
7436 U40:夜
9196 U40:够
2132 U40:大
724 U40:天
9584 U40:太
9716 U40:奖
796 U40:好
7976 U40:如
3260 U40:始
9896 U40:子
9392 U40:学
9976 U40:宁
6132 U40:安
3320 U40:定
6096 U40:宜
8204 U40:宝
404 U40:室
10436 U40:宴
5516 U40:家
1960 U40:容
7328 U40:宿
3196 U40:将
8572 U40:小
4572 U40:少
7336 U40:就
4160 U40:尽
10596 U40:尾
4656 U40:展
1616 U40:山
9596 U40:岛
8852 U40:岸
2396 U40:州
5572 U40:工
2560 U40:左
4976 U40:已
3636 U40:市
4816 U40:布
4116 U40:希
8256 U40:带
8388 U40:帮
10476 U40:常
2532 U40:平
1416 U40:年
2392 U40:广
7152 U40:应
316 U40:底
1176 U40:店
9856 U40:庙
8864 U40:度
6288 U40:延
2464 U40:建
3244 U40:开
5764 U40:式
2616 U40:形
4016 U40:影
3452 U40:征
8156 U40:待
1636 U40:很
4812 U40:微
8236 U40:心
8920 U40:忙
2332 U40:快
10184 U40:怡
7576 U40:恩
3568 U40:息
2716 U40:您
3032 U40:情
1812 U40:想
1672 U40:意
1656 U40:愿
3844 U40:成
1536 U40:我
4352 U40:或
7776 U40:户
456 U40:房
3516 U40:所
3136 U40:才
9076 U40:打
9296 U40:执
4620 U40:找
1684 U40:承
5644 U40:把
4004 U40:投
5720 U40:报
10536 U40:拓
8696 U40:拜
7740 U40:择
7696 U40:括
6136 U40:排
1692 U40:接
2272 U40:推
7112 U40:描
4192 U40:提
9656 U40:搞
6916 U40:搭
10456 U40:摄
9316 U40:操
10376 U40:收
4732 U40:放
5096 U40:数
6940 U40:整
7844 U40:文
956 U40:新
2548 U40:方
8296 U40:旁
7312 U40:无
1356 U40:日
3664 U40:早
4396 U40:旬
572 U40:时
9256 U40:明
1152 U40:星
2356 U40:是
9512 U40:晓
4700 U40:晚
9364 U40:晴
7496 U40:暂
8896 U40:最
292 U40:月
1236 U40:有
9376 U40:朗
4124 U40:望
2760 U40:朝
1264 U40:期
8656 U40:未
2956 U40:末
1916 U40:本
9428 U40:术
8876 U40:村
9636 U40:束
3112 U40:条
9736 U40:来
7416 U40:杭
4036 U40:板
9796 U40:果
7456 U40:某
8396 U40:查
7052 U40:标
9396 U40:校
4764 U40:样
6196 U40:格
3788 U40:桌
1252 U40:档
5276 U40:桥
4092 U40:椅
2136 U40:概
8756 U40:模
10276 U40:次
10116 U40:歇
2592 U40:正
3156 U40:此
6628 U40:步
6956 U40:段
7536 U40:每
7972 U40:比
2640 U40:毯
7856 U40:气
7104 U40:求
5916 U40:江
8216 U40:池
5012 U40:没
4504 U40:波
3612 U40:活
8012 U40:浓
5404 U40:浦
1464 U40:海
4292 U40:深
9516 U40:港
8956 U40:湖
1060 U40:湾
8996 U40:源
5212 U40:火
4916 U40:点
5636 U40:烦
4232 U40:片
9936 U40:物
8476 U40:特
3436 U40:现
5904 U40:珠
2840 U40:理
5548 U40:用
3764 U40:由
868 U40:番
996 U40:白
1272 U40:的
2176 U40:看
7372 U40:知
5356 U40:码
10576 U40:确
8692 U40:礼
9836 U40:福
884 U40:禺
8336 U40:离
3532 U40:租
3884 U40:移
3412 U40:程
4804 U40:稍
3908 U40:空
5232 U40:站
4104 U40:等
10056 U40:筒
2676 U40:算
10356 U40:箱
3716 U40:米
7656 U40:类
6536 U40:系
8464 U40:索
8076 U40:繁
7928 U40:约
1164 U40:级
1972 U40:纳
3832 U40:组
2832 U40:经
9632 U40:结
5728 U40:给
7016 U40:编
2920 U40:网
8952 U40:罗
4748 U40:置
4360 U40:者
6532 U40:联
3144 U40:能
10216 U40:腾
6236 U40:至
9176 U40:致
6784 U40:舞
916 U40:花
8056 U40:苏
9032 U40:范
10112 U40:茶
9772 U40:草
2276 U40:荐
1044 U40:荔
10636 U40:莞
8472 U40:菲
5272 U40:虹
6392 U40:行
6296 U40:西
2088 U40:要
8752 U40:规
8136 U40:解
6340 U40:计
7212 U40:订
3852 U40:讨
3388 U40:训
384 U40:议
9996 U40:讲
3860 U40:论
6836 U40:设
10052 U40:话
2876 U40:询
7156 U40:该
10316 U40:说
1876 U40:请
3400 U40:课
6076 U40:谈
5736 U40:谢
4492 U40:象
7216 U40:货
9876 U40:贸
6896 U40:费
8992 U40:资
6652 U40:超
5968 U40:路
5224 U40:车
9916 U40:较
5976 U40:边
6660 U40:过
3580 U40:近
1908 U40:还
6516 U40:这
10256 U40:连
7116 U40:述
8536 U40:退
2252 U40:适
7732 U40:选
5148 U40:通
7376 U40:道
7920 U40:邀
4944 U40:那
10352 U40:邮
6992 U40:部
928 U40:都
10036 U40:配
1172 U40:酒
6172 U40:里
8512 U40:金
6684 U40:钟
4576 U40:钱
5456 U40:铁
7616 U40:铺
2812 U40:销
10396 U40:镇
9972 U40:长
2476 U40:门
9156 U40:闭
1884 U40:问
580 U40:间
10556 U40:闸
7176 U40:闻
9592 U40:阳
5236 U40:附
7276 U40:院
836 U40:除
8516 U40:陵
10152 U40:隆
8716 U40:随
3460 U40:集
2080 U40:需
5424 U40:靠
2936 U40:面
6824 U40:音
2928 U40:页
4516 U40:顿
9712 U40:颁
2672 U40:预
7056 U40:题
10160 U40:飞
492 U40:餐
6756 U40:饭
512 U40:饮
5952 U40:马
5856 U40:骨
7796 U40:高
5852 U40:鱼
5624 U40:麻
8796 U40:齐
1596 U40:龙
1696 U40:！
532 U40:（
696 U40:）
816 U40:，
1996 U40:－
1376 U40:：
6696 U40:；
2036 U40:？
204 U41:0
296 U41:1
152 U41:_B-1
84 U41:_B-2
208 U42:0
300 U42:1
156 U42:_B-1
88 U42:_B-2
212 U43:0
248 U43:1
160 U43:_B-1
92 U43:_B-2
216 U44:0
424 U44:1
164 U44:_B-1
96 U44:_B-2

-0.2498717780938627
-0.2207104014535051
-0.7195252090674130
1.1901073959186421
-0.8909709568549431
0.5395729940875583
-0.0414493491025188
0.3928474425243931
0.2237233380937882
-1.1710953151179955
0.4519056363851749
0.4954664641697440
-0.7947794706043948
-0.3565093972550494
0.3976237734396644
0.7536652043863467
0.1139937084540002
0.3169940452302381
-0.0779520990647932
-0.3530355210519151
0.2206640827836760
0.4775564090795038
-0.4837240298087708
-0.2144964555888447
-0.2175054207432779
-0.2863771570196676
0.4740759089268616
0.0298067994655579
-0.3662391075703772
0.8226024142623088
-0.4382496807126312
-0.0181135024637359
0.0275300100919372
-0.1946299480314311
0.1128867796823450
0.0542131901029676
-0.0830034890429377
-0.3012863005553971
0.0977175993821290
0.2865723237513378
-0.0005667517217739
-0.0009579695291716
-0.0027981365222191
0.0043228577731933
-0.0005667517217739
-0.0009579695291716
-0.0027981365222191
0.0043228577731933
-0.0005667517217739
-0.0009579695291716
-0.0027981365222191
0.0043228577731933
-0.0005667517217739
-0.0009579695291716
-0.0027981365222191
0.0043228577731933
-0.0005667517217739
-0.0009579695291716
-0.0027981365222191
0.0043228577731933
-0.9597273334353208
-0.2187018610498028
0.5301172134571069
0.6483119873501139
0.0229535496990971
-0.2571911538984518
0.1877396845405770
0.0464980502551954
-0.1952694897444193
-0.2177929653198899
0.1795249953525199
0.2335375831910986
-0.0559856376004744
-0.2043756423474491
0.1982134925118623
0.0621478192746956
-0.0253546190514550
-0.0543845439104705
-0.1347520798604295
0.2144913763191511
-0.0005667517217739
-0.0009579695291716
-0.0027981365222191
0.0043228577731933
-0.0005667517217739
-0.0009579695291716
-0.0027981365222191
0.0043228577731933
-0.0005667517217739
-0.0009579695291716
-0.0027981365222191
0.0043228577731933
-0.0005667517217739
-0.0009579695291716
-0.0027981365222191
0.0043228577731933
-0.0005667517217739
-0.0009579695291716
-0.0027981365222191
0.0043228577731933
0.4966935537481265
-0.5419138709934214
0.2912195928695714
-0.2459992691541740
0.7121501553591807
0.3397122384985942
-0.2981173548474759
-0.7537450071729555
-0.1083780485178587
-0.6226684087364827
0.1566928236855312
0.5743536398914569
1.6345523011124243
-0.1596097928187306
-0.9298073121881245
-0.5451351887902532
0.6711164094518152
-0.6171122537200200
-0.3421568789571782
0.2881528539062138
-0.4724414498411158
0.2460125047690946
0.2179829052857591
0.0084461633488796
0.9596875015102941
-0.6006937042784255
-0.1593597217534652
-0.1996339655302185
-0.4327829981080165
0.1021953654815397
0.0135802137083223
0.3170075524906110
0.3198750268461820
0.7064007831092244
-0.7598497087867229
-0.2664260957453128
-0.1293912138048948
0.0841314253156537
-0.0077739580094128
0.0530337576387025
0.0888318256385820
0.0447332367370339
0.0004407311787727
-0.1340057752967439
-0.0504520265052465
0.0313159137647096
-0.0182477659805654
0.0373839886188517
0.0069975121473946
-0.0003309249671291
-0.0023529886596632
-0.0043135985207681
0.0069975121473946
-0.0003309249671291
-0.0023529886596632
-0.0043135985207681
0.0069975121473946
-0.0003309249671291
-0.0023529886596632
-0.0043135985207681
0.0069975121473946
-0.0003309249671291
-0.0023529886596632
-0.0043135985207681
0.0069975121473946
-0.0003309249671291
-0.0023529886596632
-0.0043135985207681
-0.3055929726694647
-0.3933165607728101
0.4352621849801909
0.2636473547785045
0.8589633873038219
-0.1573761655516787
-0.2490388005860700
-0.4525484157459672
0.1849574424072460
0.1129131698801347
-0.2968794872352879
-0.0009911139115369
0.3336911292343024
-0.9960664014018306
0.6154461024046161
0.0469291880172418
-0.0600779884280027
0.0211659608919137
0.0643096420096028
-0.0253975045485971
-0.8003084131204011
0.1646377659686198
0.7611736503968547
-0.1255029967733247
-1.0417500650338403
0.5848545150512038
0.2616642768678875
0.1952313049697577
-0.2346107987551182
-0.0262317832863630
0.0364034441641997
0.2244391382964877
-0.2736370166918186
0.5685361052521851
0.3067644497486554
-0.6016635309961408
-0.1320717204311676
-0.3523016351538905
0.4388569495435662
0.0455165367267515
0.2207988578737360
0.0647282426977497
-0.2501237202490081
-0.0354032567619176
-0.2046956681940574
0.3121465942665609
0.0193370482308249
-0.1267878643673104
0.0423507951688105
-0.0958345820540121
0.0429673956351896
0.0105165248137540
-0.3167309741430304
-0.0161602761243617
0.7014653060832816
-0.3685740503849796
0.8083416416096593
-0.5563701528439515
0.1409557676944259
-0.3929272453109859
-0.3063526533391259
1.1542981563615264
-0.3523992177932264
-0.4955462669566233
0.0529547982581128
0.2222457586992833
-0.4051489941998001
0.1299484376616444
-0.3807026092265076
-0.0432045500265971
0.3018371027467877
0.1220700628345691
0.1114497266552128
0.1365187126820594
0.3643424388609590
-0.6123108708935128
-0.1097217743973317
0.0920939666562016
0.1284802948854175
-0.1108524806584602
0.1156355925230570
-0.3276548585266384
0.0853204955433081
0.1266988023284480
-0.0040831592453990
-0.2886942716737720
-0.0315354011883348
0.3243128325246661
-0.1427436920395647
1.3619993556381726
-0.9178119205994557
-0.3014437356936532
-0.1125978432484696
0.2456086135701073
0.2876524306308315
-0.4206631955166347
-0.7531789729753541
0.6012730644928334
0.4444614340713859
-0.2925555144657484
0.3903788863175701
-0.2618516939963618
-0.1156783501715740
-0.0128488239083418
0.2818750022525335
0.1866679858171091
-0.1733295321467489
-0.2952134534968900
-0.4634696031435699
-0.3361663507668269
0.3536474699132888
0.4459884903244619
-0.1378170123120379
-0.1478440253373960
0.2856539437748074
0.0000070963061001
-0.0103506966723009
-0.0767473354108441
0.0714045190597872
0.0156935134397266
-0.0643140934075618
-0.0245651866936516
0.4156712152394726
-0.3267919337320304
-0.2311656099581312
0.0927604382889522
0.2617396872387504
-0.1233345101402902
0.0430116447602710
0.3367933708938020
-0.3341994057697263
-0.0456055987658553
-0.3098589335446866
-0.0802365069578305
0.3547812640228250
0.0353141947228123
-0.0798841329555215
-0.1522895749889711
0.3088707456052760
-0.0766970352304703
-0.0593297250051006
-0.0497200806773410
0.4087847626175711
-0.2997349555298058
-0.0277105781251213
-0.0154903728885826
-0.0971181214570238
0.1403190731221621
0.2628632434139083
0.2208928948155787
-0.1587858874970121
-0.3249702503145045
-0.0579592301291062
0.2629301695377034
0.0905248382233893
-0.2954957762250924
-0.0237250969951006
-0.0431245280885372
-0.0813304927151644
0.1481801184499602
-0.0825966018431950
0.1896328287973716
0.0432950000887105
-0.1503312246116605
0.0344920885710485
-0.0806067346829233
0.0325449148800474
0.0135697316423569
-0.0810830450543811
-0.1186751846723516
0.3147178063916352
-0.1149595684252480
-0.0118268483737304
-0.0239443623019812
-0.0795329515373068
0.1153041628648663
0.2127113258886952
-0.3488720877121674
0.4132635750953657
-0.2771028128635692
0.0504555107068199
0.1278223134157932
0.0794788223097047
-0.2577566381977200
-0.3752046545002989
-0.0616782492018713
0.0998477127937874
0.3370351923134675
-0.0143752737555388
0.0138396467527902
-0.0948928481713692
0.0954284754167692
-0.5193313510320152
-0.0922692293392118
0.0513309111502770
0.5602696716500060
-0.0162155157497697
-0.0897467701804311
0.2509748275803504
-0.1450125412367127
-0.1966230236992678
-0.3337912039865413
0.1774585176566639
0.3529557182661183
-0.0093544251371644
-0.0326425225293590
-0.0685460748599323
0.1105430227681051
0.0976868294783626
-0.0090420966272771
-0.1016265621784733
0.0129818299780635
-0.0012523532566024
-0.2737715413627763
-0.0169636490156849
0.2919875436616112
0.1625274980883046
-0.1862743134039387
-0.1257009268160437
0.1494477435351804
-0.0105183778361338
-0.0209830674046016
-0.0554682569391170
0.0869697024223165
-0.0062681094507015
-0.0032302699470907
-0.0149720069520295
0.0244703863760413
-0.1163249853534995
-0.0291351500719684
0.2741871179225878
-0.1287269820833947
0.3507204345844713
-0.1180345547087533
0.0887243414058543
-0.3214102130501555
-0.0671648704995241
-0.0336008226918565
-0.0002049133043498
0.1009706071456221
-0.0020382117450280
-0.0117389236335061
-0.0089871907816382
0.0227643261859743
-0.0169220225572530
-0.0114302756154630
-0.0535606030187145
0.0819129014333060
-0.0060501845761303
-0.0066681166708409
-0.0148242811864706
0.0275425825655107
-0.0323500382713006
-0.1152084119032320
0.2774444173498540
-0.1298859667635096
-0.1314108708397771
0.0803263177939473
0.0616901481384798
-0.0106055868531946
-0.0042089157087287
-0.0094609814591008
-0.0125985335764924
0.0262684308783279
-0.0011521995502126
-0.0011674699508893
-0.0089486933518531
0.0112683628788708
-0.0009764962423948
-0.0008091131913616
-0.0083004962958907
0.0100861057287025
-0.0048274027593375
-0.0169571261745427
-0.0612083852610828
0.0829929144395468
-0.0092958819428384
-0.0065046454418238
-0.0115911907314547
0.0273917182510718
-0.0058579409254654
-0.0012809579778399
-0.0085386298652141
0.0156775287676035
-0.1228072258798487
-0.0491410728329121
0.1206397819293455
0.0513085171159523
-0.0099821119286041
-0.0016840808594939
-0.0091340744284702
0.0208002672423084
-0.0016819341727874
-0.0014927625340880
-0.0128426402534451
0.0160173369591523
-0.0206185943172071
-0.4307646550897122
0.4388731505626337
0.0125100991761026
-0.0040239323460107
-0.0041476735123716
-0.0159666910640019
0.0241382970564976
0.1316839279825940
-0.0462817117774366
0.4608764656915098
-0.5462786816771035
-0.0995645956743631
-0.1152566385147938
0.5144204989391130
-0.2995992644166455
-0.0058868480694599
0.8168355284156370
-0.2255625046042440
-0.5853861755227641
-0.0011874184524496
-0.0117307071429879
-0.0033138136808311
0.0162319392752709
-0.0067898375907462
0.5674182089519169
-0.3094945143520804
-0.2511338567201045
0.0225043142405269
-0.0133086285216287
-0.0085085433147123
-0.0006871422692163
-0.0044381965791657
-0.0781321040207485
-0.1251466251319918
0.2077169259528061
-0.0046849795845705
-0.0797506620080195
-0.2026969985338373
0.2871326404171920
-0.1181802813169007
-0.0495895058220808
0.4289879992048093
-0.2612182117326609
-0.0705303100976255
-0.0385868484535655
-0.0442962848614272
0.1534134441907594
-0.0005714814386452
-0.0013897318212183
-0.0024021596842476
0.0043633729428708
-0.0082493834460280
-0.0727922558938046
-0.1095850219083264
0.1906266615385856
-0.0088309558167013
-0.0316297032855775
-0.0599027395179987
0.1003633994010166
-0.0044731331415833
-0.0528314278006534
-0.0632891819990696
0.1205937431615938
-0.0098044919236486
0.0241975842391136
-0.0531379403083644
0.0387448487838035
-0.0411466330716016
-0.1577879291242978
0.4632996915957180
-0.2643651290676625
-0.0294418826273898
-0.0239867070954908
-0.0397123080454962
0.0931408985512228
-0.0247959068911510
-0.0183810124389389
-0.0370543726596038
0.0802312927820676
-0.0421471454420466
-0.0588350699276900
-0.0561637171819419
0.1571459328410671
0.3054719298874785
-0.2867680616384105
0.1192153189095150
-0.1379191806974804
-0.0201673826991607
-0.0361767816316389
-0.0299110855289206
0.0862552500788973
-0.0303688763026391
-0.0177419674775396
-0.0432371610048720
0.0913480055801633
-0.0344418898153867
-0.0153677438940988
-0.0550433578718399
0.1048529923678116
-0.0035583886810789
-0.0295935458825712
-0.0620040714688561
0.0951560063227439
-0.0124716216445764
-0.0103788560053626
-0.0749176086214752
0.0977680870692811
-0.0408924399153088
-0.0302428490365321
-0.0751876906625556
0.1463229804034122
0.0284309497897936
0.1965190747691009
0.0133790920835364
-0.2383291121417779
0.0854526361849996
-0.0317550177179458
-0.0906343177879064
0.0369367001188892
0.1083273628615559
0.2853080880958305
-0.1760304626180363
-0.2176049838336004
0.0897033837477653
0.7927193269011186
0.0561528937626785
-0.9385756027978516
0.4880798755909263
-0.0451860813004768
0.0234213470511175
-0.4663151368408434
-0.3579973150445417
-0.1736255397291422
0.3420446597562446
0.1895781966308085
-0.0476318787960109
-0.0808159680490774
0.1750715459611610
-0.0466236989653902
0.3777255200549587
0.1623671820441693
-0.1879176869871118
-0.3521750135050086
-0.0136092262294955
-0.2150178965842790
0.3430734284125025
-0.1144463054491607
-0.3274811053414605
0.3493717392080332
0.2300237770483175
-0.2519144064148044
-0.0218716607934692
-0.0196116457407324
0.3438051127681289
-0.3023218060854028
-0.0402323831581313
0.1381064889877626
0.1153326606754745
-0.2132067648985588
-0.1832624687604658
0.1027573642190828
0.0870855568124266
-0.0065804504546632
-0.0270209302392410
0.3401094307696768
-0.2992085024701639
-0.0138799935627674
-0.1822136140094633
-0.1953242616758763
0.1366186319759118
0.2409192455251409
-0.1559132504951369
-0.0389730475452197
0.3602125043459189
-0.1653262061559169
-0.2360195504445452
-0.0330860106601822
0.5697103877558113
-0.3006048263169291
0.5275609602527552
-0.0585813733337379
0.1713132179873153
-0.6402928032983071
0.0213698477816671
0.3085242152372058
-0.3242748138281746
-0.0056192473769964
-0.0312345097605843
0.0303751008326991
0.3100617680178450
-0.3092023587560776
-0.0612527169376343
0.2448058358973134
-0.0369459880944368
-0.1466071307151932
-0.0379690676780403
0.4525074437157635
-0.1561737324690100
-0.2583646432364060
-0.0617601319654725
-0.2931635944048581
0.1046834738480370
0.2502402543349402
0.1364798713589747
0.9063539021947172
-0.5582825056931688
-0.4845512663005033
0.0439542787986086
-0.3636011560741430
-0.0663464594013467
0.3859933382370190
-0.0803301404839267
-0.0291867621026501
-0.1628413084521180
0.2723582113708881
0.2842374553118154
-0.2086872611501739
-0.1523068946915830
0.0767567008827381
-0.1060516165582867
-0.2519619674190476
0.3184137883019355
0.0395997974927780
-0.0544186529532274
-0.0664805477865775
0.1001346471369921
0.0207645551632042
-0.0058316878197703
0.1689787229767598
-0.0728335093705301
-0.0903135254319603
0.3092216843842418
0.0908628876147804
-0.3266610319899893
-0.0734235396748072
-0.0325197429137922
-0.0381675831207912
-0.0322448338653136
0.1029321602547931
-0.1015489544192067
-0.0858067923163544
0.1412953114919655
0.0460604368082916
-0.0110858781929421
-0.4298649675067294
-0.0744469345816159
0.5153977808514880
-0.0067674119137286
-0.0260803701001183
-0.0427652321623857
0.0756130147456228
-0.0174091323594563
-0.0105403304328831
-0.0554714852460709
0.0834209483942396
0.4608415115507891
-0.0271271006144605
-0.2196464844538736
-0.2140679258278413
-0.3916723727280851
-0.1449790052265416
0.1688902192154349
0.3677611603035670
-0.0637678979413485
-0.0221906262287265
-0.0268447076166077
0.1128032323559604
-0.1160564789854810
-0.0320341761448784
0.2732681443457531
-0.1251774885590784
0.0329283626226443
-0.0936571824704214
0.0325924196128443
0.0281364053871375
0.0499112853729172
-0.0092327340342686
-0.0658309520495307
0.0251524010664137
-0.0198335594741041
0.2933144270220945
-0.1246929942544140
-0.1487878726370142
-0.1075115849472899
0.2057672118037458
-0.1834391289988122
0.0851835072964730
-0.0099855679838662
-0.0656434573489220
-0.0232230225774415
0.0988520484813643
-0.0003604145451402
-0.0054606644576762
-0.0005172583175822
0.0063383373204347
-0.0945978178865104
-0.1019498157551995
-0.1280134171301028
0.3245610559239628
-0.0001121876022153
-0.0002147111502531
-0.0002797303579998
0.0006066291103885
-0.0409073988580944
-0.0134416374647848
-0.1200968207755291
0.1744458577554291
-0.0455931964064853
-0.0566346241451739
-0.0278349796436184
0.1300628004949993
-0.0150908446549503
-0.0103593182789651
-0.0187833132541727
0.0442334767599381
-0.0005422477334004
-0.0002545069518593
-0.0001925938789127
0.0009893485638788
-0.0204812890007366
-0.0088984188695208
-0.0647142209743668
0.0940939291434183
-0.0301249636925474
-0.0953978140955654
-0.2127031746994954
0.3382259576402847
-0.0008320707042792
-0.0005521325328094
-0.0004033686058205
0.0017875718595947
0.1337123753808820
-0.0153944890678036
-0.1463112103728018
0.0279933247171429
-0.0367917426336837
-0.0087751650468174
-0.0786493093187593
0.1242162172971581
-0.0005602048732937
-0.0005571678185258
-0.0004189107345045
0.0015362834433631
-0.0002039719914499
-0.0002501922165481
-0.0002302968989657
0.0006844611068096
-0.0005602048732937
-0.0005571678185258
-0.0004189107345045
0.0015362834433631
0.0810827688737170
-0.5041635839350052
-0.1865198295832142
0.6096006498048560
-0.0006111851381315
-0.0005450143577355
-0.0003798694854345
0.0015360689975941
-0.0006111851381315
-0.0005450143577355
-0.0003798694854345
0.0015360689975941
0.2574288395622114
-0.0163912336018826
-0.1085161921285018
-0.1325214135346696
-0.0096088011850864
-0.0036483542134431
-0.0038646056144894
0.0171217612489158
-0.0003640576808806
-0.0002711904930163
-0.0001949437483987
0.0008301919220902
-0.0005725042278045
-0.0005434797119758
-0.0003958257659904
0.0015118097221153
-0.0056767698729829
-0.0037682162165087
-0.0088013588978690
0.0182463452224731
-0.0005725042278045
-0.0005434797119758
-0.0003958257659904
0.0015118097221153
-0.0682700542520971
0.3716197317204801
-0.2296126849718931
-0.0737369921994128
-0.0053304322138419
-0.0101721091662095
-0.0052188036800644
0.0207213452955999
-0.0006900749500392
-0.0004814931850628
-0.0004763110782563
0.0016478792295712
-0.0003342149404793
-0.0002282315032045
-0.0002650262886478
0.0008274727318596
-0.0006900749500392
-0.0004814931850628
-0.0004763110782563
0.0016478792295712
-0.0003737933577383
-0.0002705024395841
-0.0003102261072450
0.0009545219043248
-0.0070327389708512
-0.0058882636619176
-0.0043432898440396
0.0172642927108099
-0.0449498294026089
-0.0161515297910839
-0.3283587513112594
0.3894601106230934
-0.0006933484195900
-0.0005080027026983
-0.0006367170239921
0.0018380681626414
-0.0005045297434228
-0.0002461069936495
-0.0004476812310577
0.0011983179679243
-0.0058473542996330
-0.1086342206998923
-0.2649803349158062
0.3794619100335621
-0.0064279260176048
-0.0049060454502468
-0.0055466644234327
0.0168806361256623
0.6851401665675478
-0.0134748908600851
-0.2604133607306684
-0.4112519148574746
-0.0010187865910084
-0.0003366183234290
-0.0007418623766503
0.0020972672910173
-0.0108184677787414
-0.0260012291660091
0.4472579497045133
-0.4104382526403162
-0.0058714333564393
-0.0209284419492814
-0.0099975172014996
0.0367973926287130
-0.0003700318732319
-0.0013247481247543
-0.0003311349816995
0.0020259149797010
-0.0012625696782648
-0.0064143325767693
-0.0054747515678054
0.0131516539439211
-0.0001489465972867
-0.0002151017101844
-0.0002403225185869
0.0006043708255751
-0.0026743884279234
0.4452389692379439
-0.0106130298962927
-0.4319515507949430
-0.0024532588348927
-0.0028557911024607
-0.0034389435709622
0.0087479936286560
-0.0007403189462968
-0.0002415712468710
-0.0002084782431047
0.0011903684360511
-0.0002799870794349
-0.0002747055252295
-0.0004790809039028
0.0010337735080413
-0.0037519878755113
-0.0023686905790878
-0.0034158033739186
0.0095364819497087
-0.0004001836307381
-0.0004136986938483
-0.0003946785785413
0.0012085609024889
-0.0006914156308089
-0.0011453898103373
-0.0005523200490632
0.0023891255035709
-0.0056029940285607
-0.0023017744737209
-0.0049882712235569
0.0128930398464454
-0.0004679837969623
-0.0006299229805401
-0.0004394463639598
0.0015373531546124
-0.0003359324375768
-0.0005022058699717
-0.0002809177116749
0.0011190560187705
-0.0003359324375768
-0.0005022058699717
-0.0002809177116749
0.0011190560187705
-0.0009068192826026
-0.0004886490483293
-0.0004501848836635
0.0018456532281533
-0.0003113259530500
-0.0002834613094346
-0.0002734320626598
0.0008682193244766
-0.0004518255967137
-0.0002766845364961
-0.0003456200920815
0.0010741302251032
-0.0006118467679488
-0.0006540786963351
-0.0004857875912351
0.0017517130691454
-0.0002911372684670
-0.0006943265886778
-0.0001671953398213
0.0011526591963845
-0.0002911372684670
-0.0006943265886778
-0.0001671953398213
0.0011526591963845
-0.0004619939852458
-0.0008072139991420
-0.0002991620295973
0.0015683700269698
-0.0001342707730096
-0.0001269938283822
-0.0001729045504144
0.0004341691512202
-0.0001342707730096
-0.0001269938283822
-0.0001729045504144
0.0004341691512202
-0.0001342707730096
-0.0001269938283822
-0.0001729045504144
0.0004341691512202
-0.0006760183330610
-0.0002058825631494
-0.0001922504459241
0.0010741513414789
-0.0006760183330610
-0.0002058825631494
-0.0001922504459241
0.0010741513414789
-0.0003766579902146
-0.0001927265389807
-0.0004860719366856
0.0010554564655409
-0.0003766579902146
-0.0001927265389807
-0.0004860719366856
0.0010554564655409
0.1540226741459113
-0.4008177415260176
-0.0549229214214963
0.3017179902445669
-0.0240835215715592
0.2361743707307721
-0.0841101435705313
-0.1279807041437991
-0.0007325725934807
-0.0002217577860047
-0.0007891678409541
0.0017434982201391
-0.0872579478348626
-0.2069185419604715
0.1347019261217667
0.1594745648408442
-0.0007325725934807
-0.0002217577860047
-0.0007891678409541
0.0017434982201391
-0.1906436710803649
-0.0198338518183028
-0.0836385322653182
0.2941160566108412
-0.0188851217767887
-0.0282541382544056
0.0819994970133757
-0.0348602358188664
-0.0045588128211988
-0.5272859828229528
-0.1245611710444909
0.6564059685683692
-0.0036659835997236
-0.0014857194061581
-0.0006899300001673
0.0058416330058565
-0.0381818175036615
-0.0576930635507384
0.1692698329329499
-0.0733949507176871
0.0558710700348098
-0.2696371895398673
0.1773649005898255
0.0364012207942413
-0.0431319068804231
-0.0899482030067655
-0.1178577868337511
0.2509378981714892
-0.0039039072878364
-0.0035475296162862
-0.0207301993684145
0.0281816364199607
-0.2085396233697880
0.1436011901757237
0.0528550369578178
0.0120833981163805
0.0853002877305668
-0.0121221465524134
-0.0169540661902529
-0.0562240748403084
-0.1323012041099820
0.0425841118075959
0.1371561901801891
-0.0474390967205976
-0.0296145481030381
-0.0032234585767990
-0.0024008183701633
0.0352388250729899
-0.2778991930626884
-0.1103748032658563
-0.0816685026484339
0.4699425004296449
-0.0043684004777129
-0.0355874882183252
0.1197613156065176
-0.0798054267636100
-0.0002989749716388
-0.0061874730615640
-0.0183673852043454
0.0248538332602581
-0.0592178616793308
-0.0157754595315211
-0.0690053211550769
0.1439986442458442
-0.0297468635736055
-0.0398378863447053
0.1716416530760351
-0.1020569027871121
-0.1061168696092434
0.1684113415076706
-0.0982141137315024
0.0359196429898994
-0.0024108735129357
-0.0008521478532172
-0.0177333622412576
0.0209963836309706
-0.0212337524815980
-0.0396809095180972
0.1863665681588243
-0.1254519057872595
-0.0079400510624580
-0.0306537258666613
0.1480548279723670
-0.1094610508950820
-0.0225288759497780
-0.0408237464412443
0.1781906759738434
-0.1148380531576954
-0.3607878994336436
-0.1354617649071919
0.0032724988382890
0.4929771673812380
-0.0159082952792188
-0.0405842553249996
0.2100080348507495
-0.1535154838753909
-0.0183413860517309
-0.0417634496855464
0.2013344217371989
-0.1412295855751946
-0.0046770990679747
-0.0015235496690728
-0.0191214307442279
0.0253220795046287
-0.0125347800654708
0.1661355956512167
-0.0289638882890590
-0.1246369271489655
-0.0143676452201110
0.2274264160237989
-0.0427767178748171
-0.1702820525013396
-0.0127648573189970
0.2389687567175736
-0.0415649363415702
-0.1846389626828634
-0.0059284642517644
-0.0013625137553804
-0.0232287058762202
0.0305196839066287
-0.0146823691688139
-0.0114483939750692
-0.0399535711632388
0.0660843347354370
-0.0113650424134051
-0.0110052455582532
-0.0377520422404774
0.0601223305872373
0.0326061921031205
-0.0127921903933682
-0.0469609352084693
0.0271469339279565
-0.4396449642029129
0.3392846483035156
0.2019354413674291
-0.1015751238810249
-0.0310910296891804
-0.1712677213492560
-0.0217929149190600
0.2241516675453379
-0.0008985183995356
-0.0142377105168021
-0.0061503051262086
0.0212865340695267
-0.0723144190000801
-0.0815428344283238
0.0537231338870491
0.1001341211240331
-0.0008801294627679
-0.0009888130830369
-0.0046176440784368
0.0064865866512889
0.1367427727625729
-0.0349342330013521
-0.0850051982380757
-0.0168033413432485
-0.0013986431605972
-0.0009870494810493
-0.0042987639104698
0.0066844565798941
-0.0120981918855241
-0.0835590539906570
0.1320896329641238
-0.0364323869085271
-0.0758143396948816
-0.0978692744678942
0.0739216789696861
0.0997619367769807
0.1283404869449557
-0.2495946566306285
-0.0369504355192332
0.1582046079587395
-0.0071273840538868
-0.0446357339777562
0.1697160454694867
-0.1179529272582434
-0.1052462354454155
0.1934670862101789
-0.0955915425585303
0.0073706945442461
-0.0014325928600424
-0.0009333001462301
-0.0049067600268592
0.0072726530612746
-0.0860062317651089
0.0925645628561522
0.4322053952407573
-0.4387637256143615
-0.0607753535178514
-0.1693051144602192
0.1723593186027849
0.0577211509580312
0.5179421649815045
0.0308540094788371
-0.2151931924799176
-0.3336029792250019
-0.0134122396381353
0.4471873552569530
-0.0965651429389326
-0.3372099719616314
-0.0097468415930669
0.1741212854940264
-0.0123385986364505
-0.1520358450847457
-0.0020472924871251
-0.0034978294617901
-0.0035377645960172
0.0090828865729944
-0.0156380214691417
-0.0498365016994756
-0.0463593849263960
0.1118339088153248
-0.2168531580188282
-0.0960947167376471
0.4000011835509972
-0.0870533060355263
-0.0033108278161147
-0.0100234808682479
-0.0070147371428649
0.0203490460064564
-0.0345521059815112
-0.0246891039716288
-0.0382752306350632
0.0975164413068506
-0.2416037924851190
0.1555431071686171
0.0122157874098776
0.0738449006590041
-0.0777117173023380
-0.0232596897206708
-0.0552115508644650
0.1561829586098216
0.0771340442026299
-0.2647143954808392
-0.1282836092776516
0.3158639625192511
0.3606393946952237
-0.3590387860083946
0.2169711273678122
-0.2185717340971093
-0.1496350668715875
0.0032209720537313
0.0443491111147608
0.1020649851979956
-0.0294046794456591
0.7385300792850752
-0.1074346054867143
-0.6016907923935026
0.1916423568556638
0.0312603889061984
-0.1823525129402977
-0.0405502313252952
0.5815677301140587
-0.3421544831284859
-0.3777723592916911
0.1383591150461296
0.4686713545207131
-0.0555010509289796
-0.1572474616527629
-0.2559228404440877
0.0348397614158150
-0.4463359969235864
0.4825048583094563
-0.0710086200576064
0.5185322493731700
-0.1058649113565603
-0.1182751154165865
-0.2943922206392612
-0.1268101734243217
0.2488049759984774
0.2471120276339613
-0.3691068279806517
-0.0381959973214683
0.7331854825665571
-0.1791074492351208
-0.5158820332663476
-0.5424170980103035
-0.0383274255123586
0.1162615550127858
0.4644829707349221
-0.2842506339843828
0.3950337586873776
-0.2089733446862742
0.0981902214819047
-0.1041975823311060
-0.1731678976065494
0.4468591846451639
-0.1694937027450397
0.2346769291476162
-0.6022656873004264
0.0737705172765951
0.2938182430998925
0.5390158011981364
-0.1818115407211332
-0.0302080883313750
-0.3269961694035930
0.7166895040643546
0.2077869321153017
-0.6701391271773477
-0.2543373075015499
-0.2403233122861279
0.1318223509785348
0.0985319825292000
0.0099689810018372
-0.2546148719171200
-0.1835104027575596
-0.0503436381579583
0.4884689134118065
-0.3977765248487682
0.2056865056058314
0.1874982992382492
0.0045917227472124
-0.0523431591768239
-0.2916662895993476
-0.0061124948199221
0.3501219441771737
-0.2132395165870709
-0.1955166174409043
0.1040595176334976
0.3046966186139126
-0.0554975077767292
-0.0240775739271920
-0.0243497685698902
0.1039248508550893
0.0875524636907087
-0.0262305603082317
-0.0791961963323659
0.0178742935306220
-0.1834966456350905
-0.0677641704218964
0.0623765729555003
0.1888842436807545
-0.1713936049998319
0.3718615248187900
-0.1563677786076632
-0.0441001394222162
0.0910738004270852
-0.2367286168256633
-0.0457543266799721
0.1914091448674164
0.0395332098470461
-0.2971492454383266
0.3365690431043008
-0.0789530057223051
-0.1058860164791138
0.4893791598859247
-0.0503146413122364
-0.3331785003046837
-0.1688969853813782
-0.4116925165768783
0.3230220619126778
0.2575674418357790
-0.0569051421954536
-0.1055624868332673
0.2881366281020337
-0.1256689986970876
-0.0923024455409739
-0.1316962126210712
0.3536600453420543
-0.1296613868026064
-0.0461856367506170
-0.0216121670869938
0.2673131337088190
-0.1995153294924555
-0.1182028377933781
0.1283169339759132
0.1084647380975374
-0.1185788339038664
-0.0406119952176098
-0.1663425347737557
0.1644214780295346
0.0425330523378303
-0.1037261036764294
-0.5831002079074297
0.2435740204712351
0.4432522921453212
-0.0875654972034474
0.4237932354238176
-0.2650982175823579
-0.0711295196015446
-0.0349704603485929
0.1240612954320974
-0.3293393530031839
0.2402485183724237
-0.0841965889977273
0.1521149698915424
-0.5234192060382959
0.4555008261792652
-0.0488836774152038
-0.2396080391376381
-0.1268686190041112
0.4153603360072413
-0.0384965985871720
-0.0388807707673526
-0.1148923275379999
0.1922696973419666
0.1389490291952096
-0.1748717755029242
-0.2960551730086144
0.3319779203196712
0.1230259430730774
-0.0202210057911081
-0.1223500662131932
0.0195451293815194
-0.5554632988068741
-0.2420070233533807
0.3299410128643864
0.4675293110958517
-0.1096934568857833
0.0482082939576804
-0.1884970154290206
0.2499821793618076
-0.0673395647884151
-0.4072147845145774
0.2213613036578397
0.2531930474473658
-0.0347020571228327
-0.0618722783971557
0.0637133335514806
0.0328610024180099
-0.0341513753152463
-0.1123401309847487
0.2940316952493466
-0.1475401871435274
-0.0198799107102367
-0.0265003313268675
0.2926067003620403
-0.2462264565194032
-0.0464823745403581
0.0834416846185394
0.1407041903532906
-0.1776634984109540
-0.2038811730584016
0.1713381032481296
0.0594514802159975
-0.0269084085978348
-0.0232424334406190
0.0765849839996251
0.0640433739578035
-0.1173859224923666
-0.0066443958978628
-0.0373343497754456
-0.0243133168030526
0.0682920632819366
-0.3879965343727183
-0.0602690523154351
0.1104944372869183
0.3377711514227489
-0.0676301723222404
-0.0154821244301590
-0.0169785981615030
0.1000908957185813
-0.0007533049745467
-0.0009552678343397
-0.0015967991574161
0.0033053720507779
-0.0807400286751218
-0.0220332410495496
-0.0619090707487372
0.1646823412817270
-0.0571805042511906
-0.0008976702448286
-0.0023560835644756
0.0604342581453082
0.4084277737125676
-0.1164574445959903
-0.1550593235729516
-0.1369110035193681
-0.0022126642653533
-0.0003981820732302
-0.0010124476795724
0.0036232940503936
0.1055727250172079
-0.0053345746665434
-0.0546448960551643
-0.0455932542103770
-0.0252661143089909
-0.0040770846619328
-0.0011977143394013
0.0305409133422504
0.2574700409405721
-0.0177726852273508
-0.1270739319764194
-0.1126234229300065
-0.0260033968505431
-0.0098769645737584
-0.0059961585610267
0.0418765200743938
0.2797897747629662
0.0019896899802868
0.2467407385069621
-0.5285202012256264
-0.0002508799562569
-0.0086747047277269
-0.0054390793782492
0.0143646640941951
-0.0009771766981156
-0.0116043299539284
-0.0076742757188109
0.0202557824601091
-0.0013451764412436
-0.1682785165170537
0.2388441209305946
-0.0692204278869837
-0.0007236751327562
-0.0092265247241354
-0.0057828608294802
0.0157330607807657
-0.3100045748550020
0.1059943085706126
0.0695051565824144
0.1345051105101303
-0.0017155836331063
-0.0036537028024874
-0.0042607739361107
0.0096300604600351
-0.0013734914728912
-0.0027230065864596
-0.0032169361974402
0.0073134343504852
-0.0008380194254005
-0.0023012800981674
-0.0028475258644364
0.0059868254193035
-0.0008380194254005
-0.0023012800981674
-0.0028475258644364
0.0059868254193035
-0.0013851572684977
0.3949765579665983
-0.1469452091071659
-0.2466461915059584
-0.0020048146187574
-0.0018876074581989
-0.0024151653246174
0.0063075874955217
-0.0007635094870200
-0.0014859603762590
-0.0018723018952229
0.0041217717901055
-0.0019123368600501
-0.0025150044823595
-0.0031024523191799
0.0075297937491384
-0.0007635094870200
-0.0014859603762590
-0.0018723018952229
0.0041217717901055
-0.0007635094870200
-0.0014859603762590
-0.0018723018952229
0.0041217717901055
-0.0009979520537192
-0.0008802231710503
-0.0016948163113142
0.0035729915674033
-0.0009979520537192
-0.0008802231710503
-0.0016948163113142
0.0035729915674033
-0.0025701230154863
-0.0013036142454416
-0.0031701052728598
0.0070438426281230
-0.0020657803165492
-0.0016499613386645
-0.0023845989791676
0.0061003406999677
-0.0026498955549329
-0.0017438867371238
-0.0033439134070271
0.0077376957872391
-0.0017082353529747
-0.0008246839952072
-0.0019753079364356
0.0045082273153733
-0.0030917190395677
-0.0017751883622101
-0.0028644152091941
0.0077313226753044
-0.0017082353529747
-0.0008246839952072
-0.0019753079364356
0.0045082273153733
-0.0030917190395677
-0.0017751883622101
-0.0028644152091941
0.0077313226753044
-0.0037708705631535
-0.0019222986341967
-0.0044419784805014
0.0101351477717776
-0.0144598247540216
-0.0018532265114411
-0.0048146757051164
0.0211277270350405
-0.0144598247540216
-0.0018532265114411
-0.0048146757051164
0.0211277270350405
-0.0092539251117725
-0.0007912045050884
-0.0033517366351918
0.0133968662829156
-0.0194048354760048
-0.0048690242856146
-0.0074845375212717
0.0317583974112046
-0.0092539251117725
-0.0007912045050884
-0.0033517366351918
0.0133968662829156
-0.0794817908731508
-0.0014440716035477
-0.0205909834155457
0.1015168459558331
-0.0429684021752270
-0.0086087215260487
-0.0191205756443165
0.0706976994730112
-0.0794817908731508
-0.0014440716035477
-0.0205909834155457
0.1015168459558331
-0.0407698691878440
-0.0006692395962330
-0.0140807013904445
0.0555198102046977
-0.0019688671301450
-0.0588780959441286
-0.0041133424123251
0.0649603056135213
-0.0016943577009941
-0.0644991963893016
-0.0360623920237913
0.1022559461780872
-0.0016943577009941
-0.0644991963893016
-0.0360623920237913
0.1022559461780872
-0.0033001454282912
-0.0024912903809683
-0.0028355877732852
0.0086270237100507
-0.0042602792600208
-0.0209120829347740
-0.0165046892329091
0.0416770514926502
-0.0009217558486670
-0.0016939881405446
-0.0054343337304775
0.0080500778473431
-0.0375864010204352
0.1838640243855713
-0.0598642517613635
-0.0864133699166367
-0.0911587166915532
-0.0267046872728266
-0.0281925870958379
0.1460559927465698
-0.3150622211532785
-0.2150858647530616
0.0678020605330623
0.4623460270578924
0.5041306658478719
-0.0251984416033154
-0.0798007586122018
-0.3991314654354254
-0.0637160192350875
0.4938007962018203
-0.0610876607625239
-0.3689971160078807
-0.0253192012309881
0.0300246083733550
-0.2112388573431204
0.2065334518865964
-0.0481405029398414
0.2066855137091809
-0.3421061555091713
0.1835611449368282
-0.2068108078457348
-0.1228524098819182
-0.1092919111224187
0.4389551305323998
-0.0058474305613274
-0.1140258559294821
-0.2713828383887691
0.3912561250767267
-0.0332523749910134
-0.1324839863685958
-0.5480675097319189
0.7138038714813737
0.6494444615788290
-0.2853167989861238
-0.2968571530410994
-0.0672705091600466
0.5964309560236314
-0.3201311052686101
-0.4144171134861310
0.1381172632365392
0.7847386325088657
-0.0136653781904335
-0.2649503220788318
-0.5061229320414486
-0.0203343127829108
-0.0377252826716301
0.3901104092674211
-0.3320508134200907
-0.0232483993149507
-0.1221282381823376
0.3118553235942648
-0.1664786855901498
-0.0258782550262322
0.4123611048817756
-0.1234329007240617
-0.2630499486224111
-0.0106205489695966
0.4159128626707830
-0.0470004353641785
-0.3582918779444240
-0.0644662708723415
0.1875290310852863
0.1526343753683585
-0.2756971349700578
-0.0269074675002398
0.1282971311988817
-0.0349169262792728
-0.0664727368081745
-0.0505100022046156
-0.0843628779976909
-0.0656105290274661
0.2004834097380915
-0.0033577578706534
-0.0041922589117541
-0.0076463354997135
0.0151963523379385
-0.0194799272042851
-0.0146847710635774
-0.0368927560383616
0.0710574546997833
-0.0393735651848084
-0.0172468983152804
-0.0400485019126167
0.0966689660221539
-0.0156380850099152
-0.0022474422709578
-0.0087625616888918
0.0266480890267035
-0.0716733208484809
-0.0277741794241287
-0.0823725109586210
0.1818200117408739
-0.0115699772724232
-0.0014824027832575
-0.0231063472403641
0.0361587273522264
-0.0670226365875537
-0.0110774999333449
-0.0702968781519921
0.1483970152838836
-0.0409768966723652
-0.0023846879833903
-0.0369708944743210
0.0803324791865953
0.3374682673514715
-0.0264344990508182
-0.1293819566458689
-0.1816518110422357
-0.0369511126746544
-0.0264068982788165
-0.0454908822973480
0.1088488933080585
-0.0301182657518622
-0.0816617624869399
-0.0995004068722478
0.2112804361527571
-0.0361649247986374
-0.0623948594863469
-0.0538416434889118
0.1524014288149997
-0.0152866788557121
-0.0400797502342099
-0.0436974433843023
0.0990638735134805
-0.0540762520686510
-0.0181410322059535
-0.0421209685990004
0.1143382539111495
-0.0102168924207537
-0.0235991977169705
0.1176076424027657
-0.0837915518769551
0.0470367125069007
-0.0412418604388019
-0.0669341049249340
0.0611392538942853
-0.0068066326388439
-0.0437778533820709
0.1609118286415937
-0.1103273422323426
-0.0129944451554027
-0.0452404891575323
0.1577587246895115
-0.0995237899178967
-0.0602317981285545
-0.0291861981721056
0.1842597249968020
-0.0948417283077935
-0.0636484319793204
-0.0308930482603799
0.1770443423879773
-0.0825028616901990
-0.0385238212600554
-0.0359087423201664
0.1514584373610932
-0.0770258733198160
-0.0273338497170855
-0.0323301994484982
0.1605040035559660
-0.1008399539990452
-0.0528405629550204
-0.0282270229325919
0.1365915946436990
-0.0555240082970903
-0.0058260394479931
0.0217863177998388
-0.0048363203665394
-0.0111239578145890
0.0097758769295512
-0.0264949972423102
0.1576287986562348
-0.1409096779526549
-0.0052334436808387
0.0165743743355699
-0.0222458542590788
0.0109049237744321
0.0166568266587534
-0.1074062901653401
0.1942304886227562
-0.1034810246568995
-0.0052215484427974
-0.0053679606193349
-0.0195041617406904
0.0300936709723377
-0.0063366360311526
-0.2259843047408488
-0.0118886357400203
0.2442095769388430
-0.1003115435445110
-0.0067021373186353
-0.0125264751544651
0.1195401564452449
-0.0388793213777541
-0.0043769348612004
-0.0219449189505310
0.0652011753585865
0.2471524142255325
-0.0081899439186060
-0.1224542178471835
-0.1165082520310106
0.3420404223002174
-0.0081462528825281
-0.0618772269206676
-0.2720169423293044
-0.0830810047550618
-0.0125090047743041
0.1279704490402491
-0.0323804390836208
-0.0707415376689852
-0.0169362443495242
0.0793547960521078
0.0083229863954478
-0.0121707610233708
-0.0155324331791415
0.1228947088704084
-0.0951915143581603
-0.0064970309710936
0.1701575315464554
-0.0581517115118811
-0.1055087887533046
-0.0064970309710936
0.1701575315464554
-0.0581517115118811
-0.1055087887533046
-0.0131722344397215
-0.0062842157987118
-0.0566438880278043
0.0761003385754383
-0.0131722344397215
-0.0062842157987118
-0.0566438880278043
0.0761003385754383
-0.0132091772715491
-0.0043775499178899
-0.0648670304104908
0.0824537579087160
-0.0132091772715491
-0.0043775499178899
-0.0648670304104908
0.0824537579087160
-0.0792000030778377
0.0678062505681349
-0.0295912916114012
0.0409850456920933
-0.0279931479523596
-0.1283996524298973
0.0437769261407725
0.1126158758129328
-0.0931624865989819
-0.0069375609162695
-0.0792748159446550
0.1793748637683005
-0.0931624865989819
-0.0069375609162695
-0.0792748159446550
0.1793748637683005
0.4034270757182061
0.1362952262376100
-0.1493422580808123
-0.3903800423011604
-0.0086377875913954
-0.0264166007470378
-0.1103065198172095
0.1453609081709711
-0.0162114479519231
-0.0450672759393939
-0.1335763044714902
0.1948550286713578
-0.0036031841237520
-0.0928187849672316
-0.0301956750677942
0.1266176441749462
-0.0683977165218979
0.2006017297121672
0.1527818353462585
-0.2849858469594401
-0.0009491765123536
-0.0038315125050437
-0.0211751623290531
0.0259558513646728
-0.3246328380878798
0.6167409134079860
-0.4797241109236463
0.1876160371820281
-0.0220007781949539
-0.0019913164625141
-0.0194097114182454
0.0434018060934194
-0.0027420540918376
-0.0139849709308753
-0.0230286545600586
0.0397556796001169
-0.0097698228131146
-0.0308030098673755
-0.0715047232011600
0.1120775564324445
-0.0157934762355866
-0.0191357061402484
-0.0624834789299200
0.0974126618559846
-0.0342439442243713
-0.0178590655203381
0.2167166404977432
-0.1646136302131733
-0.0114109703994479
-0.0593087029539959
-0.0187628704150475
0.0894825443156980
-0.0387204543347340
0.2301506268464309
-0.0607198288798913
-0.1307103430914955
-0.0424456332324892
-0.0599122329530362
-0.0465176997461259
0.1488755664724457
-0.0070860346192512
-0.0220657578189629
-0.0087602074456189
0.0379120004318150
0.2549987729012252
-0.0066939772813483
-0.0881491448813280
-0.1601556501980692
0.0345758457141570
-0.0052650041876687
-0.0159614222446690
-0.0133494187324063
0.1792895710348685
0.1868984730512266
-0.0417658085968682
-0.3244222349498895
-0.1150744608945028
-0.2815364153806912
0.2770600905910754
0.1195507865430242
-0.0199123190497308
0.3939554696940817
-0.2136120396561555
-0.1604311101291231
0.0716533438087653
0.4250335139188572
-0.1073685914472128
-0.3893182651662273
-0.0160453050230897
-0.1246366647911450
-0.0774896479916422
0.2181716186631464
-0.0565044556819370
0.2836071703204956
-0.2739623089105274
0.0468595953816709
-0.0938700868919220
-0.0951480185550486
-0.2135689729347433
0.4025870794985488
-0.0209745828027129
-0.0276713269875674
-0.0560197188191938
0.1046656294714187
-0.0757745477418387
-0.2238089439287229
0.1479582796898698
0.1516252136251076
-0.2724425650273894
-0.1751527640439516
0.2602566783719340
0.1873386523459372
0.0862952625508087
-0.0878176159084065
-0.2265309063762103
0.2280532608495695
0.0453316418368463
-0.0366959429272853
-0.0471459094485749
0.0385102114003635
-0.2013718052296607
-0.0990487639510044
0.1224385320134554
0.1779820388185396
0.0127324262590234
0.0881808150798006
-0.2267541852657285
0.1258409450384632
-0.0923889809704007
-0.0831157711329737
-0.0190346145083851
0.1945393682600261
-0.0106497208706483
-0.0099160760896711
-0.0180533980277827
0.0386191954311685
0.4194860541215606
0.3192725578275970
-0.4750428957674393
-0.2637157145291821
-0.0047364059665421
-0.0156445981745530
-0.0079314662253142
0.0283124708112236
-0.0034656480206729
-0.0148354749836824
-0.0071358390536987
0.0254369624069977
-0.0594630586487010
-0.0056527207333434
-0.0077973096099383
0.0729130894366202
-0.0571664234888058
-0.0046408655137197
-0.0066062595277460
0.0684135488787017
-0.0433909449557711
-0.0045422140347199
-0.0586970848240090
0.1066302441637970
-0.0449454860396502
-0.0056096009139605
-0.0607858248982046
0.1113409122979819
0.1603875607972063
-0.0038091142636030
-0.1070834852168992
-0.0494949609679642
0.1512054608816510
-0.0062753201812329
-0.1092753374360272
-0.0356548028187968
0.2147871347425377
0.0881201530280420
-0.0539255683461115
-0.2489817190746052
-0.0433018332057999
0.0377823269641580
0.1012773594703539
-0.0957578528363114
-0.0325623054475347
-0.0389608893249050
0.0968125593897670
-0.0252893642268997
-0.0316024988062858
-0.0280766124095385
0.0899237905862289
-0.0302446789807153
-0.0174707330341986
-0.1328308046249128
0.1836445058148282
-0.0333429677639900
-0.0018087303527528
-0.0022915950994369
-0.0038391069370677
0.0079394325142179
-0.2907363346037168
-0.0222699155346986
0.1876835644320463
0.1253226860959902
-0.0432484811867593
-0.0023387691568935
-0.0038887056781378
0.0494759561458646
-0.0169632763981865
-0.0030782399108078
-0.0462004899258879
0.0662420063593130
-0.0258548863166191
-0.0013187261083074
-0.0644135586404416
0.0915871711889388
0.2664214819164543
-0.0022614749929257
-0.0973587902476057
-0.1668012165519982
0.6326194783040697
-0.2282377726939817
-0.7497048577523202
0.3453231525591765
-0.0148586210230375
-0.0057653431161584
-0.1201798621708530
0.1408038267257453
0.4483952075087942
-0.0533623415093910
-0.0888646928131514
-0.3061681727690148
-0.0111193308235500
0.0518591553078358
0.2997966187100294
-0.3405364427786998
-0.0152882305891697
-0.0165505304885087
0.3063007683597191
-0.2744620068660407
-0.0228968909515313
-0.0114248671409624
0.2702870800891479
-0.2359653218438963
-0.0057712749302758
-0.0061535866174499
0.2502405085205153
-0.2383156468207970
-0.0040814102657415
-0.0064773490656077
0.2512659354329996
-0.2407071759487243
-0.0148691171322434
-0.0062708945797106
0.2458221243299191
-0.2246821124658691
-0.0137282888773043
-0.0060239866037880
0.2485394231222480
-0.2287871474882746
-0.0214250673054929
-0.0136982092847811
0.2121311228159865
-0.1770078458160161
-0.0147988945865988
-0.0073614419142277
0.2396048267824742
-0.2174444901290301
-0.0238796475740319
-0.0123003354901207
0.2000273124461735
-0.1638473289726425
-0.0155344024611347
-0.0095317603615647
0.2376411010599717
-0.2125749380845323
-0.0238796475740319
-0.0123003354901207
0.2000273124461735
-0.1638473289726425
-0.0264436580129881
-0.0145941777935548
0.1889714745408797
-0.1479336383247340
-0.0264436580129881
-0.0145941777935548
0.1889714745408797
-0.1479336383247340
-0.0107385328051553
-0.0105545406556554
0.2341806209977837
-0.2128875473846699
-0.0091355664078573
-0.0121242027615741
0.2341172829208059
-0.2128575135993724
-0.0241570970894900
-0.0247383355970405
0.1850987861173428
-0.1362033530241728
-0.0241570970894900
-0.0247383355970405
0.1850987861173428
-0.1362033530241728
-0.0089373092443081
-0.0162870943587587
0.2404948109104810
-0.2152704071557844
-0.0461002930013200
-0.0539617368538362
0.2124206838758936
-0.1123586536134433
-0.0461002930013200
-0.0539617368538362
0.2124206838758936
-0.1123586536134433
-0.0073616572946280
-0.0678932035272802
0.2324091802101696
-0.1571543189811582
-0.0361091408652511
-0.3470215481103295
0.1199366447010219
0.2631940452262987
0.0663056296287433
-0.1382672136896803
0.2041949354912238
-0.1322333504801590
0.4116620845013025
0.1284536469941483
0.1294954438503666
-0.6696111743999759
-0.0410557639246159
0.0244924724944756
0.0138425969353672
0.0027206954417106
0.3677192100830625
-0.0943011966289281
0.0302427380743079
-0.3036607505814210
-0.0010730504005523
0.0503486144188713
-0.0424490355201323
-0.0068265284758091
-0.0027593568418545
-0.0054797510858987
-0.0378748301714454
0.0461139381210090
-0.0028099694328888
-0.0057894429964193
-0.0399750637308829
0.0485744762348713
0.0810101254947726
-0.0019830389743182
-0.0337819644286185
-0.0452451220710061
-0.0404903570011486
-0.0030343717388467
-0.0362576411678690
0.0797823699814470
-0.0388440265772881
-0.0413694896875126
-0.0271399515094990
0.1073534678481837
-0.0505352272873717
-0.0119393631344071
0.0625762498782916
-0.0001016594351888
-0.0515315312445968
0.0157204630355531
-0.0818743514044134
0.1176854196871033
-0.0008713241858682
0.0302664748235860
-0.0183426821509414
-0.0110524684654625
0.3738056066856291
-0.0081498763551372
-0.1312072676027357
-0.2344484626546384
-0.0634891903216239
0.0654899551685829
0.0634968112626094
-0.0654975752013020
-0.0364051827058058
-0.0309716164473230
0.0374384042327960
0.0299383958297220
-0.1267100356042775
-0.0175766458657796
0.0111346719382170
0.1331520104381443
0.2900327972687939
-0.0228967090154524
-0.1247109094391378
-0.1424251779072120
-0.0522984989488426
-0.2186958098539196
0.3504185696921852
-0.0794242599787945
-0.0038497114501193
0.1602628003524592
-0.0046660347670687
-0.1517470540668797
-0.0008456624705017
-0.0031843378015282
-0.0020206815960397
0.0060506819352924
-0.0020932864825915
-0.0382505898416496
-0.0273114015639499
0.0676552780539439
-0.0060195873851952
-0.0019213030522658
-0.0010453377390692
0.0089862282440143
-0.0081758290195600
-0.0144845466005703
-0.0130834665483572
0.0357438423342388
-0.0031773138367586
-0.0052395333833225
-0.0141156607939094
0.0225325081794831
-0.0018734018342824
-0.0026238265392496
-0.0036447285827809
0.0081419570236680
-0.0049589302388460
-0.0036886733526448
-0.0133254695981434
0.0219730733550993
-0.0026985559573064
-0.0014148347587513
-0.0040033666283399
0.0081167574108516
-0.0046761657260399
-0.0034859231474814
-0.0149583262808164
0.0231204153209732
-0.1256473571109088
-0.1256520641322080
-0.4425876213239631
0.6938870443532763
-0.0359757121809947
-0.1460309544090593
-0.3907461747113588
0.5727528430878623
-0.0005833784957910
-0.0011537059392830
-0.0022943874502779
0.0040314719120498
0.1974984223095270
-0.0273387985913092
-0.4058328841004323
0.2356732621705549
-0.0012791249784704
-0.0007992456576008
-0.0019775933876526
0.0040559640506229
-0.0004326940556857
-0.0003393697618699
-0.0003642938149767
0.0011363576365490
-0.0013420157615946
-0.0007373982954647
-0.0024511542498432
0.0045305683339188
-0.0003009413907675
-0.0003274568617086
-0.0002654922213308
0.0008938904780474
0.4403745355002656
-0.0498634914728630
-0.2344291237980005
-0.1560819184449276
-0.0003009413907675
-0.0003274568617086
-0.0002654922213308
0.0008938904780474
-0.0002495925732799
-0.0002137054556974
-0.0002717708197506
0.0007350688525899
-0.0002495925732799
-0.0002137054556974
-0.0002717708197506
0.0007350688525899
-0.0016678485217599
-0.0005204856392958
-0.0033229747436610
0.0055113089314889
-0.1645185438060946
-0.3542536923172157
0.5860762672299167
-0.0673040293231195
-0.0018403029714356
-0.0002219790570855
-0.0003264945854405
0.0023887766177832
-0.0018403029714356
-0.0002219790570855
-0.0003264945854405
0.0023887766177832
-0.0036388714221351
-0.0008098061657751
-0.0045431048422797
0.0089917824570050
-0.0011319395571762
-0.0002979143686733
-0.0018053210036559
0.0032351749331584
-0.0011319395571762
-0.0002979143686733
-0.0018053210036559
0.0032351749331584
-0.0009321541150701
-0.0021011161224381
-0.0013180344865949
0.0043513047282967
-0.0049037088765370
-0.0285964718640027
-0.0570577074198303
0.0905578882377774
-0.0024168528308112
-0.0375158254103567
-0.0219405791847120
0.0618732575041136
-0.0064339778691784
-0.0378405132584204
-0.0204069176772950
0.0646814090931081
-0.0006835570101708
-0.0087333353513755
-0.0082259662218479
0.0176428586618028
-0.0050489072423066
-0.0098917376305251
-0.0103535749261801
0.0252942200866092
-0.0629747374163624
-0.1313114019854815
0.1331554571961961
0.0611306832306656
-0.0054384797122860
-0.0057099957670985
-0.0081633908741716
0.0193118666422761
-0.0350637151669324
0.0994051072132632
-0.0187366269121634
-0.0456047641064121
-0.0023141802349470
-0.0013690068436001
-0.0059478941230588
0.0096310812810266
-0.0350637151669324
0.0994051072132632
-0.0187366269121634
-0.0456047641064121
-0.0537416185637766
-0.0307624098440149
-0.0739333346720839
0.1584373641060677
-0.0537416185637766
-0.0307624098440149
-0.0739333346720839
0.1584373641060677
-0.0071846943247553
-0.0054159444316172
-0.0080720377871691
0.0206726768321405
-0.0051618230055727
-0.0019448514284513
-0.0067711840051242
0.0138778585187960
-0.0172107301647346
-0.1588396826302666
-0.0541617986122735
0.2302122124341821
-0.0172107301647346
-0.1588396826302666
-0.0541617986122735
0.2302122124341821
-0.0007786080198968
-0.0048730512008074
-0.0115547947679210
0.0172064540312678
-0.0084747930492607
-0.0062813643840827
-0.0104417250160983
0.0251978827352701
-0.0019989322370299
-0.0047630078158815
-0.0071525851238814
0.0139145252191580
-0.0562367335907038
-0.0159059498200499
-0.0407455692534640
0.1128882536891631
-0.0562367335907038
-0.0159059498200499
-0.0407455692534640
0.1128882536891631
-0.0008339561718004
-0.0027824270543041
-0.0051591725201241
0.0087755557882353
-0.0002469031921668
-0.0003218744905365
-0.0006897029788353
0.0012584806654710
0.1835090398349533
-0.0365578609508482
-0.0679298380277624
-0.0790213398295972
-0.0002209975623590
-0.0007035575457063
-0.0002419445902888
0.0011664997021064
-0.0011492125283492
-0.0036441303054211
-0.0022376931838011
0.0070310360602946
-0.0002164001511515
-0.0002487383014805
-0.0001737268215094
0.0006388652779955
-0.0961323991500606
-0.0420165166470903
-0.0218282471334335
0.1599771638502520
-0.0010369341860401
-0.0014950921122661
-0.0016884888955927
0.0042205152365936
-0.0113626263005657
-0.0368700149848099
-0.0462285926141939
0.0944612348161986
-0.0002389369982422
-0.0002343325236291
-0.0001520362031178
0.0006253057282405
-0.0002389369982422
-0.0002343325236291
-0.0001520362031178
0.0006253057282405
-0.0355092843177450
-0.0214821842551203
-0.0330349176588282
0.0900263871484492
-0.0002794114279199
-0.0001947739984718
-0.0001636886306699
0.0006378740601153
-0.0002794114279199
-0.0001947739984718
-0.0001636886306699
0.0006378740601153
-0.0003637040315199
-0.0002879340465673
-0.0001824166402104
0.0008340547217323
0.1168524787738972
-0.0220646808493704
-0.0491246724572998
-0.0456631245480354
-0.0003740735256991
-0.0002583211678121
-0.0002183550435503
0.0008507497405447
-0.0893982432314971
-0.0270438098230635
0.0897433525550784
0.0266987014168695
-0.0112778079133862
-0.0088605051937004
-0.0049335248654115
0.0250718382161359
-0.0002319937603912
-0.0002602028400081
-0.0002590599950389
0.0007512565989916
-0.0029017743674051
-0.0035465924499354
-0.0092420124787068
0.0156903795385307
-0.0017534133650289
-0.0011522009873810
-0.0010023567715136
0.0039079712175632
-0.0202703016469791
-0.0025527211105699
-0.0098930397002365
0.0327160627007650
-0.0019555863763403
-0.0011689513228687
-0.0015524983191789
0.0046770361121468
-0.0011964355324708
-0.0028596683670530
-0.0008458672004208
0.0049019711949650
-0.0065333759836817
-0.0041775023925275
-0.0272057373698562
0.0379166159916339
-0.0030484461608502
-0.0009149918878443
-0.0015363087279720
0.0054997468718865
-0.0151252658381350
-0.0325625650672987
-0.0052941179440975
0.0529819490941623
-0.0355667212276626
-0.0016106213421793
-0.0049012877146655
0.0420786303797188
-0.0042372909097940
-0.0118199714711833
-0.0187469961886171
0.0348042588518571
-0.0035173953196242
-0.0058352598900777
-0.0142361342153434
0.0235887897084672
-0.0046323832085295
-0.0112527267952940
-0.0068611817456721
0.0227462920351235
-0.0167524105185598
-0.0028841716163960
-0.0081964572049561
0.0278330396240368
0.0308818432143025
-0.0039414359416993
-0.0235088547457617
-0.0034315522433784
-0.0029006582610009
-0.4759694280776175
-0.0130728605560393
0.4919429471266576
-0.0024704982058188
-0.0058382492953661
-0.0063303207453271
0.0146390684780601
-0.0395037976772080
-0.0051065166779003
-0.0050509630771530
0.0496612776641307
-0.0053272524966965
-0.0321502112482421
-0.0101484513508733
0.0476259153283336
-0.0059682762911545
-0.0049783966892259
-0.0087745734347924
0.0197212466483766
-0.0008339145943895
-0.0009449024003370
-0.0011180296209104
0.0028968466489601
-0.0026752509500798
-0.0007968486049754
-0.0012769962848196
0.0047490958731530
-0.0026752509500798
-0.0007968486049754
-0.0012769962848196
0.0047490958731530
-0.0062101915013510
-0.0011904575047139
-0.0031040155358612
0.0105046645754675
-0.0062101915013510
-0.0011904575047139
-0.0031040155358612
0.0105046645754675
-0.0025322199101761
-0.0014058795274007
-0.0073632777712745
0.0113013772427259
-0.0025322199101761
-0.0014058795274007
-0.0073632777712745
0.0113013772427259
-0.0017482728720967
-0.0018170481019956
-0.0081155525655373
0.0116808735730109
-0.0017482728720967
-0.0018170481019956
-0.0081155525655373
0.0116808735730109
-0.0014248621138396
-0.0097772257491382
-0.0011408667408217
0.0123429546515319
-0.0010206715624423
-0.0095517872731208
-0.0007905003385611
0.0113629592077042
-0.0012769293851653
-0.0007323150979308
-0.0011295824201851
0.0031388269514466
-0.0003686567953439
-0.0004732829923640
-0.0005622172178096
0.0014041570394845
-0.0032067473478993
-0.0011999216347046
-0.0016495764950548
0.0060562455257513
-0.0018690199389094
-0.0006768611839513
-0.0004791261451376
0.0030250073015282
-0.0039837949211249
-0.0024466019105000
-0.0019448885117115
0.0083752854413337
-0.0008463344214208
-0.0007149850709223
-0.0009283259089175
0.0024896454350417
-0.0022585860892939
-0.0020781934169577
-0.0029772782520392
0.0073140578569587
-0.0011432185795889
-0.0031939132307116
-0.0011546603743461
0.0054917922327483
-0.0012307930372260
-0.0008892162396040
-0.0010436298018474
0.0031636391320263
-0.0028062548764939
-0.0022566694606712
-0.0031784655829105
0.0082413900163011
-0.0014673439767493
-0.0009669922983953
-0.0013661606042093
0.0038004969312792
-0.0012515549172996
-0.0007541321111568
-0.0011978358488031
0.0032035229098369
-0.0014158254174748
-0.0009206756425709
-0.0013954789278102
0.0037319800349480
-0.0013104714460514
-0.0026732517848489
-0.0006962886613886
0.0046800119432802
-0.0023866012261282
-0.0039256180175637
-0.0023855024853680
0.0086977218245621
-0.0010060343882390
-0.0024201574178870
-0.0005339823546237
0.0039601741924435
-0.0007384439328368
-0.0007628897487983
-0.0007329406789542
0.0022342744136207
-0.0016739871547371
-0.0011660693986347
-0.0029930486987640
0.0058331053476106
-0.0433208837139731
-0.0036975171721853
0.2080730693245764
-0.1610546683369367
-0.0017803734129321
-0.0008317332823529
-0.0007751745482955
0.0033872812957943
-0.0038839894144720
0.2000932322706967
-0.0357281621242447
-0.1604810806297093
-0.0038839894144720
0.2000932322706967
-0.0357281621242447
-0.1604810806297093
-0.0037228453998945
-0.0320343222234318
-0.0059557647491780
0.0417129324760550
-0.0037228453998945
-0.0320343222234318
-0.0059557647491780
0.0417129324760550
-0.0121321198667588
-0.0042187215764960
-0.0063417419303541
0.0226925834767086
-0.0121321198667588
-0.0042187215764960
-0.0063417419303541
0.0226925834767086
-0.0562298981689673
-0.0026093642460172
-0.0191014831062994
0.0779407456229767
-0.0562298981689673
-0.0026093642460172
-0.0191014831062994
0.0779407456229767
-0.0021149752698921
-0.0649049937562849
-0.0102226799319352
0.0772426490593542
-0.0027945236275299
0.0587294318248614
-0.0060163471285335
-0.0499185609447721
-0.0010342327447077
-0.0048226661271656
-0.0016372501644578
0.0074941491603704
-0.0009163156448860
-0.0025557857669934
-0.0012582382610985
0.0047303397682908
-0.0283138656971358
-0.0017758796736178
-0.0018100603570190
0.0318998058516475
-0.0254835888159931
-0.0015426511582108
-0.0016129034733135
0.0286391435429394
-0.0262743104929506
-0.0020886494539664
-0.0246238531043398
0.0529868131476239
-0.0266130121687735
-0.0035337430409720
-0.0253375768712775
0.0554843322062795
-0.0135772464890822
-0.0019863947444551
-0.0042187376195384
0.0197823789924241
-0.0314784325058841
-0.0105248671479883
-0.0109241919757274
0.0529274917688720
-0.1772898861182878
-0.0152929529930329
-0.0397122441486935
0.2322950833572678
-0.1775091418423669
-0.0158012586920552
-0.0400745149248634
0.2333849155853348
-0.0057077604288878
-0.0040152312696085
-0.0380953354941536
0.0478183273320594
0.2467046728217489
-0.0033189141787520
-0.2080595201338018
-0.0353262384107111
-0.1960918425276153
-0.0045643493248901
-0.0442504050353622
0.2449065970278954
-0.0142580644466492
-0.0366967886758803
-0.2097435063268263
0.2606983595911378
-0.2034572855115434
-0.0697751655464827
0.2712889665028404
0.0019434848093437
0.0297025394215800
-0.0057072333348949
0.0095175601508936
-0.0335128659835318
-0.0048057595502239
-0.2468424398597523
0.2547122914458814
-0.0030640917805950
-0.0458053190631055
0.2781557348305307
-0.0444972840187596
-0.1878531314917769
-0.0194166189584622
-0.0505645127027489
-0.0339219100667729
0.1039030419846373
-0.0018122059647409
-0.0024729523030051
-0.0021770149411348
0.0064621732938472
-0.0039408507584743
-0.0030529585386913
-0.0015891497100535
0.0085829590923325
-0.0030890326493504
-0.0031374527787107
-0.0011188845719233
0.0073453700640641
-0.0015859699866698
-0.0029565838251938
-0.0016325254855630
0.0061750793820480
-0.0006743151372447
-0.0020631132985046
-0.0011517812253020
0.0038892097253759
-0.0296222523753365
-0.0009010218625943
-0.0014680948893319
0.0319913691915083
-0.0075598357327227
-0.0016030255159126
-0.0018120287853476
0.0109748901172952
-0.0188780814200456
-0.0069173490508031
0.2341332404003274
-0.2083378097928547
-0.0859766786185024
-0.0060032290687583
0.2188314944215021
-0.1268515865981220
-0.1064026343122823
-0.0037838183036733
-0.0295597471253661
0.1397461998056043
-0.0859766786185024
-0.0060032290687583
0.2188314944215021
-0.1268515865981220
-0.0801970033000366
-0.0017050877483250
-0.0094667688656068
0.0913688599965412
-0.0080249298193296
-0.0223618823572858
0.1566344756048807
-0.1262476632924983
-0.0080249298193296
-0.0223618823572858
0.1566344756048807
-0.1262476632924983
-0.0033720575583384
-0.0187503493397493
-0.1130364612717954
0.1351588682329668
-0.0046373252734264
-0.0798069514862590
0.2305052610253704
-0.1460609841302292
-0.0046373252734264
-0.0798069514862590
0.2305052610253704
-0.1460609841302292
-0.0012899138173275
0.2384344865671820
-0.0073265559474079
-0.2298180166669634
-0.0012899138173275
0.2384344865671820
-0.0073265559474079
-0.2298180166669634
-0.0014892689240482
-0.0018445049918872
-0.0013687121499749
0.0047024861249601
-0.0045891112329516
-0.0036831718051542
-0.0029437131513332
0.0112159963247445
-0.0007447202116807
-0.0015088869597124
-0.0007852938283665
0.0030389010604186
-0.0009886389747088
-0.0008558140692997
-0.0006300713794896
0.0024745244834060
-0.0007820280831243
-0.0006324707004266
-0.0004381625270793
0.0018526613468975
-0.0008560185754788
-0.0007296219031266
-0.0004724917844941
0.0020581322985899
-0.0013159385915254
-0.0008903732728176
-0.0007016475828761
0.0029079595063132
-0.0011399626141134
-0.0011245356071226
-0.0007409083580166
0.0030054066421741
-0.0008824016166045
-0.0007578577378190
-0.0005324330675238
0.0021726924562054
-0.0011900886368670
-0.0010761309189618
-0.0007419476460885
0.0030081672634556
-0.0008824016166045
-0.0007578577378190
-0.0005324330675238
0.0021726924562054
-0.0294337774592820
-0.0009516530143710
-0.0013472406954198
0.0317326712269615
-0.0012058799687389
-0.0010255339165671
-0.0008200128271933
0.0030514267733062
-0.0008829277979360
-0.0007575743898520
-0.0005853267139892
0.0022258289354268
-0.0008829277979360
-0.0007575743898520
-0.0005853267139892
0.0022258289354268
-0.0091344158864802
-0.0118767794340678
-0.0144888657810463
0.0355000615762445
-0.0010678282628300
-0.0007697381676142
-0.0006897826678535
0.0025273491325643
-0.0114895568664227
-0.0149695549520117
-0.0075756536415346
0.0340347659357811
-0.0014473618830373
-0.0009501407945299
-0.0010106440195703
0.0034081467580671
-0.0010678282628300
-0.0007697381676142
-0.0006897826678535
0.0025273491325643
-0.0105996494629073
-0.0082417702894812
-0.0106594141176692
0.0295008343432393
-0.0013834836865931
-0.0009505043670028
-0.0008891072727585
0.0032230953599312
-0.0036878414579806
-0.0017878001816671
-0.0011875344379951
0.0066631761382184
-0.0138890130546543
-0.0090562955163450
-0.0116490406116264
0.0345943496531930
-0.0052058996422491
-0.0010620220063527
-0.0014629390699246
0.0077308607521248
-0.0052058996422491
-0.0010620220063527
-0.0014629390699246
0.0077308607521248
-0.0387119216853068
-0.0007748320073147
-0.0065102820251012
0.0459970357511353
-0.0563467603577206
-0.0044305693667721
-0.0222823334212665
0.0830596636162853
-0.0011573937939126
-0.0100068028619553
-0.0340682829902272
0.0452324796795196
-0.0028224576238565
-0.0197311140578743
-0.0156202995899355
0.0381738713057089
-0.0007065368796274
-0.0174558988382191
-0.0007621602247147
0.0189245959766415
-0.0071876710138252
0.1777239771233455
-0.0864775745296640
-0.0840587313200665
-0.0075946837590350
-0.0273403420588193
-0.0517415292005323
0.0866765552776345
-0.0002088088291254
-0.0007756675869492
-0.0008076206952197
0.0017920971169564
-0.0078086172874065
-0.0300787737331387
-0.0223487504127262
0.0602361416912136
-0.0007676427401723
-0.0004496810860792
-0.0005801017140445
0.0017974255456962
-0.0007625814721658
-0.0003852991240675
-0.0009862789170713
0.0021341595189983
0.0619408904860173
-0.0110916592470135
-0.0177073690585809
-0.0331418619216542
-0.0042558728773013
-0.0005037425270425
-0.0014554998389141
0.0062151152487626
-0.0356004602376104
-0.0108243383156762
0.0550218138182504
-0.0085970150073534
-0.3010008951045389
-0.0005382874860815
-0.0059163396171898
0.3074555222135769
0.2041311862827345
0.0282549608479874
-0.2686763583078342
0.0362902115488439
-0.0043220765642756
0.0972465088877263
-0.1452315620935694
0.0523071301425004
-0.0006201734553075
-0.2669608977329089
-0.0159926691456900
0.2835737403676440
-0.0067094662833378
-0.1040384886709361
-0.0357383151216917
0.1464862704488202
-0.0014364125237757
-0.0078549281924105
-0.0039916643819300
0.0132830051312691
-0.0004913041660940
-0.0023329131118145
-0.0026823932818702
0.0055066105932377
-0.0134089578426085
-0.0214105495699860
-0.0202435738505165
0.0550630816354523
-0.0031699418134316
-0.2642104688584284
-0.3273120658793773
0.5946924767744241
0.6461347374261875
-0.0052989261739194
-0.3222222324539750
-0.3186135785748326
-0.0036887096357513
-0.0008062216058756
-0.0022472083275876
0.0067421396027097
0.6498083174308655
-0.0050202583380960
-0.3215700633925948
-0.3232179955067738
-0.0106279152047964
-0.0153838321117715
-0.0133750718074275
0.0393868194968375
-0.0273598649788325
-0.0103013539229609
0.3223361515363961
-0.2846749324117431
-0.0267821041993310
-0.0099179518109214
0.3261202253500665
-0.2894201691468519
-0.0076852218217125
-0.0885525128127366
0.0165530038627826
0.0796847311256123
-0.0367155054734294
-0.0008879979477691
-0.0052404342557881
0.0428439377103604
-0.0137960917915281
-0.0082697684752319
0.3034826060597230
-0.2814167456001418
-0.0043751141436323
0.0999420795246385
-0.0853832867962067
-0.0101836782318855
-0.0141084507612977
-0.0122187842352279
0.3029102864446339
-0.2765830512251430
-0.0076995757864256
-0.0525849998455440
-0.0430485711587250
0.1033331472307296
-0.0080878075744494
-0.0075567184826032
-0.0814374400340378
0.0970819664447155
-0.0302917117196642
0.0401605611127199
-0.0889649327766051
0.0790960838227339
-0.0131705540964725
-0.0125690736544810
0.3011057406065313
-0.2753661126629255
-0.0133079571901859
-0.0127707329751154
0.3006934057144496
-0.2746147153268170
-0.0132500476284365
-0.0699989995607286
-0.0473268762295636
0.1305759238589574
-0.0105455792917231
-0.0051771669724687
-0.0844938428017644
0.1002165894201363
0.0526208547039709
-0.0367474160680201
0.3220855192093883
-0.3379589576548639
-0.0309466678119675
-0.0425170829517608
-0.0219955044336429
0.0954592556359619
-0.0272977775243326
-0.0091269552997706
-0.0915348383482783
0.1279595715265480
0.4252792583661418
-0.0525144568544892
-0.2516960240635204
-0.1210687770162852
0.1590749218080421
-0.0097450948071112
-0.0487842100884251
-0.1005456164717800
-0.0059676068577085
0.3172601118971167
-0.1290101517885857
-0.1822823528205029
-0.0059676068577085
0.3172601118971167
-0.1290101517885857
-0.1822823528205029
-0.0053405179197952
-0.0335285363054757
-0.0894577365908960
0.1283267912474301
-0.0053405179197952
-0.0335285363054757
-0.0894577365908960
0.1283267912474301
-0.0040229880122031
-0.0322706489231737
-0.0092212582089434
0.0455148953761610
-0.0073323098985084
-0.0366090063509448
-0.0540992164782491
0.0980405331570852
-0.0079525935461623
-0.0089617355464166
-0.0036918124456884
0.0206061417720656
-0.0073323098985084
-0.0366090063509448
-0.0540992164782491
0.0980405331570852
-0.0006438349075971
-0.0008644517331751
-0.0025883661946944
0.0040966528661300
-0.0039865574995399
-0.0030726101150036
-0.0067886387081654
0.0138478065553407
-0.0010689284533831
-0.0008336487808771
-0.0023515727281202
0.0042541499932806
-0.0043210012140376
-0.0097961704081561
-0.0492789122955746
0.0633960843465706
-0.0043210012140376
-0.0097961704081561
-0.0492789122955746
0.0633960843465706
-0.0014775068407000
-0.0010080181973257
-0.0026473226079387
0.0051328476769517
-0.0059885737602471
-0.0053296088030065
-0.0056701734896846
0.0169883562868824
-0.0008563602002978
-0.0726691471001758
-0.0022780525046085
0.0758035599053227
0.0791701092459238
-0.0036823994258800
-0.0508406208603369
-0.0246470885316127
-0.0011838605445370
-0.0007765622594494
-0.0006813859855586
0.0026418088900829
-0.0020614968593745
-0.0004457486063089
-0.0037657006081493
0.0062729461047469
-0.0066725978395293
-0.0033611140498916
-0.0084766303267095
0.0185103424472413
-0.0035030035521556
-0.0012257722951503
-0.0007730960475055
0.0055018719949167
-0.0005393656769507
-0.0002039438490214
-0.0001338105126710
0.0008771200454234
-0.0161365352713274
-0.0063364804585203
-0.0014363830087317
0.0239093987690159
-0.0002184511209351
-0.0002336348062493
-0.0002101583273629
0.0006622442616221
-0.0015203059268815
-0.0016667721966946
-0.0018066965304478
0.0049937747553541
-0.0002184511209351
-0.0002336348062493
-0.0002101583273629
0.0006622442616221
-0.0004063162996352
-0.0002648873109426
-0.0001919123480477
0.0008631159660840
-0.0004063162996352
-0.0002648873109426
-0.0001919123480477
0.0008631159660840
-0.0022484171684289
-0.0012446995189609
-0.0019335615368758
0.0054266783251524
-0.0003066473099022
-0.0004294678119927
-0.0001710312355298
0.0009071463646596
-0.0003066473099022
-0.0004294678119927
-0.0001710312355298
0.0009071463646596
-0.0002207540832245
-0.0002371134006955
-0.0001509169157469
0.0006087844069673
-0.0002207540832245
-0.0002371134006955
-0.0001509169157469
0.0006087844069673
-0.0005515989374253
-0.0004352123824048
-0.0003072053841787
0.0012940167237393
-0.0002350502701336
-0.0002166663806586
-0.0001431553088741
0.0005948719665724
-0.0005666438514287
-0.0004190447417540
-0.0004102168086246
0.0013959054213715
-0.0028461559569647
-0.0124917885530088
0.0154958009250921
-0.0001578562134613
-0.0006964029705417
-0.0008710589020241
-0.0003594751974982
0.0019269370900940
-0.0027062967406086
0.0244107129568544
-0.0088605331239539
-0.0128438828909992
-0.0012457205560359
-0.0014653167024912
-0.0010689860003903
0.0037800233539307
-0.0041511090052454
-0.0031091124386011
-0.0059796065847609
0.0132398282293106
-0.0016525929977263
-0.0012726482877651
-0.0010638981892626
0.0039891395688329
-0.0006080094521935
-0.0005433324432878
-0.0003891800022827
0.0015405219182100
-0.0007676007852341
-0.0004961024261864
-0.0004432195833646
0.0017069228169253
-0.0020082114850862
-0.0011156435410251
-0.0014749394979940
0.0045987946181590
-0.0009693256672057
-0.0005134446702528
-0.0006908854073431
0.0021736557670104
-0.0092729339652205
-0.0051351723707616
-0.0057708192678872
0.0201789258038539
-0.0015719377297761
-0.0009813396255213
-0.0011750490922723
0.0037283265303314
-0.0006578046804254
-0.0005255153535671
-0.0004358227593014
0.0016191428135669
-0.0013199881588337
-0.0006516676493779
-0.0011556382549320
0.0031272940845667
-0.0020543751640254
-0.0013018355078381
-0.0016996100720841
0.0050558208261544
-0.0054110627439881
-0.0024135478715929
-0.0020346992280317
0.0098593099370832
-0.0070865361882058
-0.0090931226373524
-0.0056387276514518
0.0218183866763595
-0.0018482897079889
-0.0022628146966220
-0.0017495544245590
0.0058606589113237
-0.0013189694934911
-0.0012618342921071
-0.0014445879433157
0.0040253917503264
-0.0040465964151225
-0.0126427466999514
-0.0093674777552206
0.0260568212059995
-0.0026167508229449
-0.0028535647889379
-0.0026280166446472
0.0080983323505493
-0.0061565374041892
-0.0059422415827772
-0.0061802830029885
0.0182790623268829
-0.0009292952835353
-0.0027205467165839
-0.0006923287349357
0.0043421708176159
-0.0005841380566998
-0.0023708385664973
-0.0004082486423644
0.0033632252866617
-0.0060029945224048
-0.0071573305955798
